{
  "layers": [
    {
      "weights": [
        [
          0.06537552177906036,
          0.025471068918704987,
          -0.06778670102357864,
          0.0172387957572937,
          -0.006290562450885773,
          -0.05308908969163895,
          -0.006358720362186432,
          -0.021331679075956345,
          -0.038878366351127625,
          0.07287143170833588,
          -0.04550418257713318,
          0.05237692594528198,
          0.053421750664711,
          0.0438106507062912,
          -0.07845000922679901,
          0.0006320849061012268,
          -0.03193603828549385,
          0.08152070641517639,
          -0.0332011878490448,
          -0.06240350753068924,
          0.014411069452762604,
          0.005428627133369446,
          0.04761284589767456,
          0.058364540338516235,
          -0.05501284450292587,
          -0.07908712327480316,
          0.08139173686504364,
          -0.0397852286696434,
          -0.037126775830984116,
          0.03406774252653122,
          0.032231301069259644,
          0.008220449090003967,
          0.07967504858970642,
          0.031555235385894775,
          -0.037907905876636505,
          -0.01649726927280426,
          -0.07324003428220749,
          0.03346995264291763,
          0.007745340466499329,
          0.06472742557525635,
          0.06871606409549713,
          -0.05938061326742172,
          0.02588769793510437,
          -0.0739828422665596,
          0.0024193450808525085,
          -0.05495242401957512,
          -0.03996642678976059,
          -0.07338768988847733,
          0.02250569313764572,
          -0.014341674745082855,
          -0.07424347847700119,
          -0.055728644132614136,
          0.07547235488891602,
          0.03040795773267746,
          0.08179013431072235,
          -0.029454976320266724,
          -0.006864525377750397,
          -0.07149867713451385,
          0.0012693777680397034,
          -0.05264248698949814,
          -0.057426609098911285,
          0.07282696664333344,
          -0.017737768590450287,
          0.008659623563289642,
          0.049404457211494446,
          0.024205386638641357,
          -0.08066242188215256,
          -0.0067780837416648865,
          -0.07526881992816925,
          -0.02354566380381584,
          -0.021673668175935745,
          -0.01588726043701172,
          0.052579671144485474,
          0.04605196416378021,
          0.04336157441139221,
          -0.03373514115810394,
          -0.006230868399143219,
          -0.031828731298446655,
          0.041775330901145935,
          0.03541409969329834,
          0.02450854331254959,
          -0.0468938872218132,
          -0.026837024837732315,
          0.06599721312522888,
          -0.003591492772102356,
          -0.07816678285598755,
          -0.04142676293849945,
          0.01403125375509262,
          -0.049912262707948685,
          0.008193910121917725,
          -0.0672745332121849,
          -0.07999274134635925,
          -0.043439947068691254,
          0.03558669239282608,
          -0.022758997976779938,
          -0.0770673155784607,
          -0.043638333678245544,
          0.04134508967399597,
          -0.017789803445339203,
          -0.05960923060774803
        ],
        [
          -0.0009366199374198914,
          0.04376716911792755,
          -0.08132065087556839,
          -0.013503938913345337,
          0.05520184338092804,
          -0.041107695549726486,
          0.03638418763875961,
          0.062247246503829956,
          0.05977161228656769,
          -0.036364346742630005,
          0.03172696381807327,
          -0.06838109344244003,
          0.06922034919261932,
          -0.042814187705516815,
          -0.06606702506542206,
          0.021902047097682953,
          0.032107673585414886,
          -0.03182297572493553,
          -0.067882239818573,
          0.02695056051015854,
          0.04882323741912842,
          -0.0157017782330513,
          -0.01472579687833786,
          0.049674272537231445,
          0.05289435386657715,
          0.05332385003566742,
          -0.055062755942344666,
          0.058693259954452515,
          0.056787729263305664,
          0.06408199667930603,
          -0.04947920888662338,
          0.014589264988899231,
          0.012072868645191193,
          0.05301395058631897,
          -0.07992438971996307,
          0.04650074243545532,
          0.004734590649604797,
          0.007875114679336548,
          -0.007663987576961517,
          0.010875791311264038,
          -0.02318403497338295,
          0.07712209224700928,
          -0.009046442806720734,
          0.04515327513217926,
          -0.004132479429244995,
          0.0723763257265091,
          -0.0031255409121513367,
          -0.027064520865678787,
          0.06324218213558197,
          -0.002100534737110138,
          -0.0004439353942871094,
          0.008989736437797546,
          0.044098272919654846,
          -0.05886612832546234,
          0.0051893070340156555,
          0.024340562522411346,
          -0.004424832761287689,
          0.024574562907218933,
          -0.05300368368625641,
          -0.06750273704528809,
          -0.04863491281867027,
          -0.05154609680175781,
          0.07183215022087097,
          0.023651421070098877,
          -0.044816747307777405,
          -0.04158572852611542,
          -0.020845454186201096,
          0.026491425931453705,
          -0.07718740403652191,
          -0.00891047716140747,
          -0.03382260724902153,
          -0.013532198965549469,
          -0.018442824482917786,
          -0.029508579522371292,
          -0.05162859708070755,
          -0.05744604021310806,
          0.06365597248077393,
          0.017046719789505005,
          -0.06604094803333282,
          -0.07357750833034515,
          0.007243029773235321,
          0.07591676712036133,
          -0.05892430990934372,
          0.015002496540546417,
          -0.06548642367124557,
          0.07639901340007782,
          0.04468314349651337,
          0.023565426468849182,
          -0.019581183791160583,
          -0.007002241909503937,
          -0.0013554096221923828,
          0.016319796442985535,
          0.03935351222753525,
          0.06572824716567993,
          0.08212070167064667,
          0.053475141525268555,
          -0.05844265967607498,
          0.06394891440868378,
          -0.06542425602674484,
          0.06961193680763245
        ],
        [
          -0.025547005236148834,
          -0.02040896564722061,
          0.04660664498806,
          0.03855552524328232,
          -0.06637798249721527,
          0.009605400264263153,
          -0.02544264867901802,
          -0.0480535626411438,
          -0.017664074897766113,
          0.025879845023155212,
          0.035959601402282715,
          -0.05375063791871071,
          -0.057067081332206726,
          0.01733836531639099,
          -0.037701740860939026,
          0.06372544169425964,
          -0.07170024514198303,
          -0.013550609350204468,
          -0.05627153441309929,
          0.06348589062690735,
          -0.01887764036655426,
          -0.07156882435083389,
          0.019789785146713257,
          -0.05372042953968048,
          0.08127862215042114,
          -0.05626935511827469,
          -0.0526091530919075,
          -0.060958944261074066,
          -0.07800542563199997,
          0.07671581208705902,
          0.014642320573329926,
          0.05971767008304596,
          0.007848739624023438,
          -0.020807407796382904,
          -0.03759219869971275,
          0.019634924829006195,
          -0.007483139634132385,
          0.05545797944068909,
          0.034440867602825165,
          -0.06263536214828491,
          0.043030112981796265,
          0.014819316565990448,
          0.01839975267648697,
          -0.025462448596954346,
          0.014536745846271515,
          0.04345144331455231,
          -0.03921108692884445,
          0.014436371624469757,
          -0.02755158767104149,
          -0.07396086305379868,
          0.040930524468421936,
          0.03688383847475052,
          -0.06046124920248985,
          -0.0632440373301506,
          0.05261622369289398,
          0.038752228021621704,
          0.03244653344154358,
          0.01513315737247467,
          0.026180818676948547,
          -0.0806514248251915,
          -0.08178414404392242,
          0.014483846724033356,
          -0.027314506471157074,
          0.012650348246097565,
          0.07911092042922974,
          0.037718988955020905,
          -0.058879151940345764,
          -0.041695017367601395,
          0.01007235050201416,
          0.009324707090854645,
          0.06437346339225769,
          0.053167954087257385,
          -0.035587359219789505,
          0.06700368225574493,
          -0.04704291373491287,
          -0.010441228747367859,
          -0.08230219036340714,
          0.018548518419265747,
          0.02342148870229721,
          -0.05187549442052841,
          0.03394812345504761,
          0.07347278296947479,
          0.05142576992511749,
          -0.015048913657665253,
          -0.022452518343925476,
          -0.03004498779773712,
          0.05096958577632904,
          -0.07366201281547546,
          0.032995596528053284,
          0.06799100339412689,
          0.08074691891670227,
          0.05918325483798981,
          0.06493893265724182,
          0.008541084825992584,
          -0.034687258303165436,
          0.011977501213550568,
          -0.08006537705659866,
          0.06052978336811066,
          0.005364537239074707,
          0.04586237668991089
        ],
        [
          -0.06656330823898315,
          -0.003530465066432953,
          0.014853022992610931,
          0.03798166662454605,
          -0.05818020552396774,
          -0.034237392246723175,
          -0.05870574712753296,
          0.03218647837638855,
          -0.013342969119548798,
          -0.006586983799934387,
          0.015074096620082855,
          -0.0823233425617218,
          0.06623880565166473,
          -0.03268921747803688,
          -0.041821178048849106,
          0.006111606955528259,
          -0.00963205099105835,
          -0.06646350771188736,
          -0.06569170951843262,
          -0.00687621533870697,
          0.019812077283859253,
          -0.01584271341562271,
          0.007851079106330872,
          -0.06690070033073425,
          -0.06153719127178192,
          0.027151145040988922,
          -0.012962326407432556,
          0.031157836318016052,
          -0.035473279654979706,
          0.02979709953069687,
          0.037837885320186615,
          0.049942612648010254,
          -0.0029941126704216003,
          0.07741783559322357,
          -0.01418013870716095,
          -0.06200418248772621,
          -0.017939038574695587,
          0.010841026902198792,
          0.049951329827308655,
          0.07023029029369354,
          -0.021614663302898407,
          0.029038406908512115,
          -0.01104302704334259,
          0.03945237398147583,
          -0.06680205464363098,
          0.07054287195205688,
          0.013017065823078156,
          0.027340732514858246,
          0.07686777412891388,
          -0.07427574694156647,
          -0.08234728872776031,
          0.05559244751930237,
          0.014632262289524078,
          -0.05836191400885582,
          0.04376994073390961,
          0.004084967076778412,
          -0.009277015924453735,
          0.027832455933094025,
          0.03861293941736221,
          0.030838079750537872,
          -0.020968690514564514,
          0.006157644093036652,
          -0.0735907107591629,
          0.02795841544866562,
          6.929785013198853e-05,
          0.04587636888027191,
          -0.03367016464471817,
          -0.0540737509727478,
          -0.0768270343542099,
          -0.01700562983751297,
          -0.05194104462862015,
          0.04696691036224365,
          0.07575960457324982,
          0.03258660435676575,
          0.018037468194961548,
          0.047998473048210144,
          0.00837978720664978,
          -0.008054174482822418,
          -0.010433629155158997,
          -0.022532720118761063,
          0.030933305621147156,
          0.06153841316699982,
          0.08188703656196594,
          0.06230391561985016,
          0.04240071773529053,
          -0.06722432374954224,
          -0.08148267865180969,
          -0.0073404014110565186,
          -0.04753885790705681,
          0.002494990825653076,
          -0.015725821256637573,
          -0.07500070333480835,
          0.026787802577018738,
          0.003957994282245636,
          0.06789104640483856,
          0.03183872997760773,
          0.024790093302726746,
          -0.03946971520781517,
          -0.0014866739511489868,
          0.05425673723220825
        ],
        [
          -0.03826531395316124,
          -0.06701904535293579,
          0.07599569857120514,
          0.004978977143764496,
          0.08083012700080872,
          0.04881206154823303,
          0.056483134627342224,
          -0.009979166090488434,
          0.06471513211727142,
          0.07153785228729248,
          -0.0711502656340599,
          -0.05494910478591919,
          0.03777153044939041,
          -0.0016848444938659668,
          0.05921751260757446,
          0.059810444712638855,
          0.045095354318618774,
          -0.0027442649006843567,
          -0.07808122038841248,
          -0.05899270251393318,
          -0.02883526310324669,
          -0.06451897323131561,
          -0.07308211177587509,
          0.011830426752567291,
          0.061236485838890076,
          -0.019295252859592438,
          -0.00014493614435195923,
          0.06098566949367523,
          -0.012372426688671112,
          -0.01248805969953537,
          -0.04284268990159035,
          -0.04816903918981552,
          -0.07015474140644073,
          0.009616672992706299,
          0.004535399377346039,
          -0.05155979096889496,
          -0.013992473483085632,
          -0.039379753172397614,
          0.06791970133781433,
          0.02119259536266327,
          -0.02616787701845169,
          0.07245528697967529,
          0.07269497215747833,
          0.011525183916091919,
          -0.058905020356178284,
          0.07475031912326813,
          0.05537895858287811,
          -0.037620287388563156,
          0.07511335611343384,
          -0.05201900377869606,
          -0.024780824780464172,
          -0.07598542422056198,
          0.0024531111121177673,
          0.03838811814785004,
          -0.02992420643568039,
          0.03491608798503876,
          -0.014009326696395874,
          0.0214090496301651,
          0.07443596422672272,
          -0.036566052585840225,
          -0.056160636246204376,
          -0.05222131684422493,
          0.012564823031425476,
          0.057598307728767395,
          0.05288304388523102,
          0.0048231929540634155,
          -0.07360883802175522,
          0.029933005571365356,
          0.05310150980949402,
          0.025461167097091675,
          0.008158475160598755,
          -0.06286264210939407,
          -0.002640537917613983,
          -0.06680596619844437,
          -0.0726976990699768,
          -0.0777679905295372,
          0.06790749728679657,
          -0.04529344290494919,
          0.04552158713340759,
          0.03397423028945923,
          0.07601991295814514,
          -0.009221352636814117,
          -0.030205383896827698,
          -0.026463255286216736,
          -0.031096726655960083,
          -0.0411720834672451,
          0.055790647864341736,
          -0.06900500506162643,
          0.049217209219932556,
          0.0556865930557251,
          -0.05919299274682999,
          -0.0005691349506378174,
          -0.0029565617442131042,
          -0.020456619560718536,
          0.04866380989551544,
          -0.0016347169876098633,
          -0.010824978351593018,
          0.05362272262573242,
          -0.005487769842147827,
          0.0026611611247062683
        ],
        [
          0.08167046308517456,
          -0.0013669952750205994,
          -0.039148151874542236,
          -0.03573017939925194,
          -0.06850089132785797,
          -0.018694579601287842,
          -0.0023010224103927612,
          0.0670592188835144,
          0.0686589926481247,
          -0.018594518303871155,
          0.04125646501779556,
          0.069114550948143,
          0.05675844848155975,
          -0.03318488597869873,
          0.01727619767189026,
          0.07523573935031891,
          -0.02329190820455551,
          0.010595753788948059,
          -0.07259054481983185,
          -0.02271360158920288,
          -0.03663210943341255,
          -0.07979282736778259,
          0.045652031898498535,
          -0.04843548312783241,
          0.07286421954631805,
          -0.029998354613780975,
          -0.05221852660179138,
          -0.03825368732213974,
          -0.015005834400653839,
          0.06826494634151459,
          -0.06877647340297699,
          0.07722228765487671,
          0.007797963917255402,
          0.00019231438636779785,
          0.07561047375202179,
          0.019571363925933838,
          0.03076958656311035,
          0.0021150484681129456,
          0.04622563719749451,
          0.05526776611804962,
          -0.026219692081212997,
          -0.050770584493875504,
          0.035702504217624664,
          0.051283106207847595,
          -0.0221368707716465,
          -0.07628380507230759,
          -0.004121147096157074,
          0.03788799047470093,
          0.019123874604701996,
          -0.0022929906845092773,
          -0.06269507110118866,
          0.014418907463550568,
          -0.0798858255147934,
          -0.023929689079523087,
          -0.025550875812768936,
          0.012250468134880066,
          -0.0319269634783268,
          -0.03940632939338684,
          -0.05672089010477066,
          0.05380567908287048,
          -0.06495064496994019,
          0.044804707169532776,
          0.030470870435237885,
          0.048715561628341675,
          -0.042828526347875595,
          -0.07557272166013718,
          -0.025942835956811905,
          0.018527597188949585,
          0.0034110993146896362,
          -0.06818839907646179,
          -0.04823841527104378,
          0.06230999529361725,
          -0.02996160462498665,
          -0.05285045504570007,
          0.04818172752857208,
          -0.052907831966876984,
          0.03524211049079895,
          0.04413102567195892,
          0.05739012360572815,
          0.06271935999393463,
          -0.0244053453207016,
          0.0022559240460395813,
          -0.05598580092191696,
          0.0602971613407135,
          -0.08051086217164993,
          0.0420088991522789,
          -0.00867372751235962,
          0.017598211765289307,
          -0.008319780230522156,
          0.010142043232917786,
          0.07596966624259949,
          -0.0692618265748024,
          0.0682203620672226,
          0.010135143995285034,
          -0.06104764714837074,
          -0.06844151020050049,
          0.025987088680267334,
          0.06627075374126434,
          0.07950423657894135,
          -0.014595158398151398
        ],
        [
          -0.016898952424526215,
          -0.0712924376130104,
          0.0012723058462142944,
          -0.026631098240613937,
          0.006838895380496979,
          -0.0010040849447250366,
          0.07456731796264648,
          -0.02353755384683609,
          0.010332763195037842,
          -0.03488371893763542,
          -0.03735727816820145,
          0.014215104281902313,
          -0.028107326477766037,
          -0.006027676165103912,
          0.04844699800014496,
          -0.06045360863208771,
          0.0017800331115722656,
          0.06796249747276306,
          -0.03555801510810852,
          -0.0713406577706337,
          0.003908656537532806,
          -0.025812961161136627,
          -0.08043316006660461,
          0.06290026009082794,
          0.03513028472661972,
          0.05300292372703552,
          0.034474119544029236,
          0.012789279222488403,
          -0.06061938777565956,
          0.06760555505752563,
          0.03250281512737274,
          0.05690374970436096,
          -0.018370583653450012,
          -0.07762721180915833,
          -0.07026515156030655,
          0.04054141044616699,
          -0.011869214475154877,
          -0.04947628453373909,
          0.03303617238998413,
          -0.030716925859451294,
          -0.019203156232833862,
          -0.02446478232741356,
          0.04634670913219452,
          0.04450969398021698,
          -0.03551417216658592,
          0.01891724020242691,
          -0.033781420439481735,
          -0.04219221696257591,
          -0.07392649352550507,
          0.059081390500068665,
          0.0014789402484893799,
          0.03078274428844452,
          -0.061980098485946655,
          -0.024935368448495865,
          -0.07368084788322449,
          -0.06775011122226715,
          0.004651129245758057,
          0.07957682013511658,
          0.021896667778491974,
          0.04183816909790039,
          0.018708527088165283,
          -0.06650999933481216,
          0.023191653192043304,
          0.024221040308475494,
          -0.039567552506923676,
          -0.01200508326292038,
          0.0012186765670776367,
          -0.08064189553260803,
          -0.014003142714500427,
          -0.05083021894097328,
          0.002726256847381592,
          0.04834355413913727,
          -0.06411589682102203,
          -0.008073031902313232,
          -0.07125651091337204,
          0.029100239276885986,
          -0.040611278265714645,
          0.03100849688053131,
          -0.04686780273914337,
          -0.063008151948452,
          0.02645464986562729,
          0.006232917308807373,
          -0.028884056955575943,
          -0.023502785712480545,
          0.07312428951263428,
          0.05538840591907501,
          0.039652012288570404,
          -0.05397096276283264,
          0.06630906462669373,
          -0.05814869701862335,
          0.05013936758041382,
          0.05741724371910095,
          0.007622577250003815,
          -0.00827731192111969,
          0.003083840012550354,
          -0.07389402389526367,
          0.052064940333366394,
          -0.07416974008083344,
          0.05932784080505371,
          -0.07885948568582535
        ],
        [
          -0.06173431873321533,
          -0.016447633504867554,
          0.07133285701274872,
          0.017014622688293457,
          -0.0695309042930603,
          -0.0747925341129303,
          -0.009241975843906403,
          0.061980053782463074,
          -0.07742717862129211,
          -0.06515602767467499,
          0.07066451013088226,
          0.03342732787132263,
          -0.0368594266474247,
          -0.07925067842006683,
          -0.07874398678541183,
          -0.0046307966113090515,
          0.009384915232658386,
          -0.06835396587848663,
          -0.030411861836910248,
          -0.005907289683818817,
          -0.03342204540967941,
          0.002863846719264984,
          0.03127511590719223,
          0.06296490132808685,
          0.046071410179138184,
          0.015062682330608368,
          -0.06867014616727829,
          0.03820618987083435,
          -0.07499657571315765,
          0.013912022113800049,
          -0.005196556448936462,
          -0.023329563438892365,
          -0.0353095605969429,
          0.012205258011817932,
          0.012387692928314209,
          0.006877534091472626,
          -0.08031132072210312,
          0.04124114662408829,
          -0.041850682348012924,
          0.039430588483810425,
          0.014904618263244629,
          0.08056212961673737,
          0.03818497806787491,
          -0.059816572815179825,
          0.05286015570163727,
          -0.01125241070985794,
          0.05733777582645416,
          0.019075989723205566,
          0.0317339226603508,
          0.008157849311828613,
          0.06491692364215851,
          0.04003658890724182,
          0.03604048490524292,
          -0.021865062415599823,
          -0.06377584487199783,
          0.0467803031206131,
          0.022607676684856415,
          0.055749014019966125,
          -0.000987999141216278,
          -0.03535236045718193,
          0.025694280862808228,
          0.018946468830108643,
          0.05356450378894806,
          0.02764108031988144,
          0.061551108956336975,
          -0.03630375117063522,
          0.04326094686985016,
          -0.05735868960618973,
          0.039926476776599884,
          -0.023158594965934753,
          0.010049231350421906,
          -0.038203854113817215,
          -0.03499579802155495,
          -0.006505034863948822,
          0.043328747153282166,
          -0.031189046800136566,
          0.003973908722400665,
          -0.002972349524497986,
          0.04459024965763092,
          0.07060916721820831,
          0.05148133635520935,
          -0.0302840918302536,
          -0.024204719811677933,
          -0.002682298421859741,
          -0.052348069846630096,
          0.022578127682209015,
          -0.06773863732814789,
          -0.004295997321605682,
          0.0333288237452507,
          -0.06581161916255951,
          -0.04847058653831482,
          0.02522066980600357,
          -0.00987948477268219,
          -0.053005434572696686,
          -0.06883402168750763,
          -0.013578049838542938,
          0.06670624017715454,
          -0.05544126033782959,
          -0.005795814096927643,
          0.05260053277015686
        ],
        [
          -0.02463969588279724,
          -0.05736756697297096,
          -0.03887919336557388,
          0.0541808158159256,
          -0.06559555977582932,
          -0.0028395354747772217,
          -0.010316029191017151,
          -0.012884929776191711,
          -0.028695963323116302,
          -0.03883865103125572,
          -0.06255088001489639,
          0.0231386199593544,
          -0.0408918671309948,
          0.05060301721096039,
          -0.027684371918439865,
          0.0620279461145401,
          -0.000781722366809845,
          0.07610355317592621,
          -0.05995491147041321,
          -0.07842569053173065,
          -0.03961532190442085,
          0.027447208762168884,
          -0.045021988451480865,
          0.035295166075229645,
          0.05909368395805359,
          0.052961185574531555,
          -0.04077939689159393,
          -0.02832462638616562,
          0.01748141646385193,
          0.050345152616500854,
          -0.061680182814598083,
          0.05371798574924469,
          0.045745640993118286,
          0.03251513093709946,
          -0.06924361735582352,
          0.003320351243019104,
          -0.006639450788497925,
          -0.002143546938896179,
          -0.015787281095981598,
          -0.07237434387207031,
          -0.0294184610247612,
          -0.04564876854419708,
          0.04932929575443268,
          -0.028144430369138718,
          0.02098778635263443,
          0.03370247781276703,
          -0.04826769977807999,
          -0.06538130342960358,
          -0.021138321608304977,
          0.04285125434398651,
          -0.040350645780563354,
          0.0658247172832489,
          -0.044839806854724884,
          0.05233025550842285,
          -0.04065103456377983,
          -0.05162203311920166,
          -0.03478780761361122,
          -0.0007993802428245544,
          -0.042728979140520096,
          -0.04334835708141327,
          0.015580765902996063,
          -0.05666317790746689,
          -0.039315346628427505,
          0.06194157898426056,
          -0.0025896430015563965,
          -0.06970008462667465,
          0.012001819908618927,
          0.04232904314994812,
          -0.0546739399433136,
          0.07327672839164734,
          0.02645915001630783,
          -0.03122846782207489,
          0.0264727845788002,
          -0.04748388007283211,
          -0.0041742995381355286,
          -0.06795921921730042,
          -0.05648421868681908,
          -0.008248105645179749,
          0.007578521966934204,
          0.01407778263092041,
          0.0351908802986145,
          0.02354264259338379,
          0.07644078135490417,
          0.004750654101371765,
          -0.048960283398628235,
          0.05511215329170227,
          -0.05534536391496658,
          -0.06498629599809647,
          0.03581782430410385,
          -0.0025181248784065247,
          -0.057889245450496674,
          0.004895538091659546,
          0.05807255208492279,
          -0.025348756462335587,
          0.017383068799972534,
          0.0033929869532585144,
          -0.08070928603410721,
          -0.03882879018783569,
          0.03213043510913849,
          0.06675368547439575
        ],
        [
          0.07378125190734863,
          0.067868173122406,
          0.06020788848400116,
          -0.0623013898730278,
          -0.06812486052513123,
          -0.0018686577677726746,
          0.019945748150348663,
          -0.01674475520849228,
          0.06006324291229248,
          -0.0025314241647720337,
          0.07929247617721558,
          -0.03044814243912697,
          -0.04088734835386276,
          0.012754492461681366,
          0.020671285688877106,
          -0.0689423680305481,
          0.03359939903020859,
          -0.05046847090125084,
          -0.03470167517662048,
          -0.012789197266101837,
          -0.06384836137294769,
          -0.07896517962217331,
          0.0040765181183815,
          0.00474219024181366,
          0.054108887910842896,
          0.05952557921409607,
          -0.008399665355682373,
          0.053334400057792664,
          0.05566158890724182,
          -0.009748905897140503,
          -0.04207469895482063,
          -0.062419869005680084,
          -0.04507201537489891,
          -0.07697916030883789,
          -0.08125533908605576,
          -0.05085253342986107,
          -0.05926502123475075,
          -0.007965803146362305,
          0.059289440512657166,
          0.05638624727725983,
          0.05925773084163666,
          -0.04622754827141762,
          0.04737865924835205,
          0.02296031266450882,
          -0.04166152700781822,
          -0.05459776520729065,
          0.06802800297737122,
          0.015498876571655273,
          0.023531995713710785,
          0.04074376821517944,
          -0.03180311992764473,
          -0.06686815619468689,
          -0.014137551188468933,
          0.022872328758239746,
          -0.04052675887942314,
          -0.024441879242658615,
          0.06290033459663391,
          0.05191631615161896,
          -0.01985052227973938,
          -0.01545444130897522,
          0.033484019339084625,
          -0.05717570334672928,
          -0.013181455433368683,
          0.02550560235977173,
          -0.0772838294506073,
          -0.052316345274448395,
          -0.04723876342177391,
          -0.022750571370124817,
          -0.06496576964855194,
          0.0680990070104599,
          0.0536186546087265,
          -0.07308969646692276,
          0.018057815730571747,
          0.010402984917163849,
          0.011497803032398224,
          -0.031790703535079956,
          0.03775206208229065,
          0.04197719693183899,
          0.042274244129657745,
          0.03887435793876648,
          -0.01734521985054016,
          -0.039983849972486496,
          -0.052092425525188446,
          -0.03843889385461807,
          0.026108913123607635,
          -0.06925925612449646,
          -0.025075122714042664,
          0.010753855109214783,
          -0.005646027624607086,
          -0.042820513248443604,
          -0.026718661189079285,
          -0.046595249325037,
          0.05795051157474518,
          -0.038345593959093094,
          -0.07483452558517456,
          -0.04710981249809265,
          0.010324202477931976,
          -0.07118295133113861,
          0.052052393555641174,
          -4.7788023948669434e-05
        ],
        [
          0.03855443000793457,
          -0.03032052516937256,
          -0.07329419255256653,
          -0.07323601096868515,
          0.05478540062904358,
          0.041950128972530365,
          -0.06850990653038025,
          0.00022783130407333374,
          -0.0026339590549468994,
          0.07096056640148163,
          -0.011245518922805786,
          0.07839792966842651,
          0.038262151181697845,
          -0.024299923330545425,
          -0.04715430364012718,
          0.053026825189590454,
          0.04212934523820877,
          0.05122442543506622,
          -0.04388413578271866,
          -0.02281929925084114,
          -0.07027766108512878,
          -0.04821005091071129,
          -0.010418526828289032,
          -0.060364529490470886,
          0.022336319088935852,
          0.02858486771583557,
          -0.07205333560705185,
          -0.044106170535087585,
          -0.04128577187657356,
          -0.03580093011260033,
          -0.06472564488649368,
          0.06816314160823822,
          0.08113826811313629,
          0.02509286254644394,
          -0.05833408236503601,
          0.015270635485649109,
          -0.049284420907497406,
          0.07910077273845673,
          -0.04894930496811867,
          -0.05261082202196121,
          -0.07009587436914444,
          0.02405828982591629,
          -0.024431370198726654,
          0.07979150116443634,
          -0.013265818357467651,
          -0.03265523537993431,
          -0.0020944029092788696,
          -0.0662299245595932,
          -0.07097101211547852,
          0.041483864188194275,
          -0.03421331197023392,
          0.060502827167510986,
          -0.06663484871387482,
          -0.0425158254802227,
          -0.036947719752788544,
          -0.06938649713993073,
          0.06545157730579376,
          -0.01198345422744751,
          0.0685344785451889,
          0.008723855018615723,
          -0.0390850231051445,
          -0.030218977481126785,
          -0.07099517434835434,
          0.027992598712444305,
          0.029515787959098816,
          0.013053402304649353,
          -0.003237701952457428,
          -0.05251787602901459,
          -0.06584475934505463,
          -0.015812523663043976,
          -0.004056327044963837,
          -0.03380540385842323,
          -0.013997070491313934,
          -0.004835627973079681,
          -0.016779504716396332,
          0.04492354393005371,
          -0.05287221819162369,
          -0.010459043085575104,
          0.010598070919513702,
          0.060881927609443665,
          0.05629456043243408,
          -0.03722936660051346,
          0.06279103457927704,
          -0.040483858436346054,
          -0.06884166598320007,
          -0.046282995492219925,
          -0.07175604999065399,
          -0.015594452619552612,
          -0.07854972779750824,
          -0.06727561354637146,
          -0.08004198223352432,
          0.02098298817873001,
          0.07803820073604584,
          0.0009160935878753662,
          0.021068237721920013,
          0.03347189724445343,
          0.047581955790519714,
          0.012678846716880798,
          -0.02819247543811798,
          0.029481962323188782
        ],
        [
          -0.01356504112482071,
          -0.02069918066263199,
          0.0007766112685203552,
          -0.03022681549191475,
          -0.018407821655273438,
          0.002313472330570221,
          -0.03993285819888115,
          -0.043848760426044464,
          -0.053932465612888336,
          -0.0711752325296402,
          -0.05110513046383858,
          -0.06140240281820297,
          -0.04088839143514633,
          0.018159054219722748,
          0.03364408016204834,
          0.013034038245677948,
          0.07181984186172485,
          0.04870198667049408,
          -0.05167418718338013,
          0.037001363933086395,
          0.002369493246078491,
          0.005417235195636749,
          -0.022519540041685104,
          0.020515017211437225,
          -0.055302999913692474,
          0.07341547310352325,
          0.05590029060840607,
          0.07132378220558167,
          -0.04730399698019028,
          -0.021688751876354218,
          0.07120665907859802,
          -0.07492633908987045,
          0.06323912739753723,
          -0.031595755368471146,
          -0.0029224008321762085,
          0.07210138440132141,
          0.025986894965171814,
          0.05613957345485687,
          0.005755826830863953,
          -0.062206514179706573,
          -0.02476499229669571,
          -0.0392836257815361,
          0.025700651109218597,
          -0.007426254451274872,
          0.04295448958873749,
          -0.057060837745666504,
          0.07494287192821503,
          -0.00736825168132782,
          -0.04012584313750267,
          0.07193760573863983,
          -0.009272858500480652,
          -0.04580427706241608,
          0.0282445028424263,
          -0.031039763242006302,
          -0.05904001742601395,
          0.01099243015050888,
          0.004335969686508179,
          0.06121104955673218,
          0.07023608684539795,
          -0.03201097249984741,
          0.027483507990837097,
          0.002018466591835022,
          -0.05940113961696625,
          -0.0713421106338501,
          -0.05543728917837143,
          -0.025485839694738388,
          -0.019446872174739838,
          0.03198390454053879,
          -0.023733973503112793,
          0.07666738331317902,
          0.011202149093151093,
          -0.02016204595565796,
          -0.043223727494478226,
          -0.0449310839176178,
          0.05397088825702667,
          0.03524874895811081,
          0.0031354576349258423,
          -0.05902364104986191,
          0.006631866097450256,
          -0.07691801339387894,
          -0.045890603214502335,
          -0.038910817354917526,
          0.05582974851131439,
          0.008889421820640564,
          0.050551578402519226,
          0.07022000849246979,
          0.05619843304157257,
          0.03768496960401535,
          0.010584913194179535,
          0.07141400873661041,
          0.0008687525987625122,
          -0.047459110617637634,
          -0.02778105065226555,
          -0.032282643020153046,
          0.05624893307685852,
          0.08107048273086548,
          -0.0677926316857338,
          -0.061150435358285904,
          -0.03033769503235817,
          -0.004465356469154358
        ],
        [
          -0.0700686126947403,
          -0.03938250243663788,
          0.06398169696331024,
          -0.05241531878709793,
          -0.0794702097773552,
          -0.06496076285839081,
          -0.0040658703073859215,
          0.0816434845328331,
          1.6872364282608032,
          -1.5879908800125122,
          -0.02242342382669449,
          -0.001225493848323822,
          0.12953224778175354,
          0.42927050590515137,
          0.04182489216327667,
          0.044721901416778564,
          0.031116627156734467,
          -0.027974367141723633,
          0.07796522974967957,
          0.06908318400382996,
          -0.02971535176038742,
          -0.11251360923051834,
          0.24233119189739227,
          -0.026770733296871185,
          -0.06717178225517273,
          -1.0336467027664185,
          0.021037042140960693,
          0.016358710825443268,
          0.008584331721067429,
          0.0011390199651941657,
          0.11390908807516098,
          0.10620138794183731,
          -8.006393909454346e-05,
          0.07285907864570618,
          -0.05716150254011154,
          -0.0649193748831749,
          0.007880933582782745,
          -0.08766157180070877,
          0.030797265470027924,
          0.05390298366546631,
          1.0085488557815552,
          -0.017502889037132263,
          -0.06654152274131775,
          -0.11838898807764053,
          0.053180500864982605,
          0.11808783560991287,
          -0.9186695218086243,
          -0.0032006502151489258,
          -0.008196637034416199,
          -0.023814303800463676,
          0.045844078063964844,
          -0.047639407217502594,
          0.030015721917152405,
          -0.05064265429973602,
          -0.032379381358623505,
          0.08021973073482513,
          -0.07097888737916946,
          -0.06530912220478058,
          -0.12978717684745789,
          0.05582033097743988,
          -0.0022476762533187866,
          0.04697088897228241,
          -0.03951498866081238,
          0.7007554769515991,
          0.04093296080827713,
          0.01674509048461914,
          -0.04635007306933403,
          0.27114003896713257,
          -0.0538807287812233,
          0.2166498899459839,
          0.12119898945093155,
          0.0635584145784378,
          -0.034838881343603134,
          -0.07819585502147675,
          -0.5121453404426575,
          0.030714213848114014,
          0.011569008231163025,
          -0.06822258979082108,
          0.05371555685997009,
          -0.9966365694999695,
          -0.06850576400756836,
          0.07798247039318085,
          0.08121931552886963,
          -1.330754280090332,
          0.019066087901592255,
          0.07351568341255188,
          0.5008034706115723,
          1.7257243394851685,
          0.019010521471500397,
          -0.001419896725565195,
          -1.5181130170822144,
          -0.017058618366718292,
          -0.06752406060695648,
          0.029972761869430542,
          0.03961396962404251,
          0.04814475402235985,
          0.09701355546712875,
          0.08147306740283966,
          0.061667297035455704,
          1.5819292068481445
        ],
        [
          -0.028424803167581558,
          -0.039173804223537445,
          -0.06578797101974487,
          -0.11302081495523453,
          0.07731343060731888,
          -0.2412213534116745,
          -0.22543562948703766,
          0.13111990690231323,
          1.6901817321777344,
          -1.5588173866271973,
          0.0002309210249222815,
          0.03258927911520004,
          0.108156718313694,
          0.44158315658569336,
          -0.030076827853918076,
          0.07246991991996765,
          -0.06986482441425323,
          -0.013735443353652954,
          0.028355427086353302,
          -0.011385001242160797,
          -0.030062489211559296,
          -0.09474704414606094,
          0.242364302277565,
          0.016174957156181335,
          0.07697796821594238,
          -1.1738216876983643,
          -0.020272769033908844,
          0.06468035280704498,
          0.08919834345579147,
          -0.02142515778541565,
          0.0015461514703929424,
          0.013711047358810902,
          -0.08091985434293747,
          0.0659046620130539,
          -0.027832139283418655,
          0.025764718651771545,
          -0.00010864436626434326,
          -0.07372506707906723,
          -0.02007901668548584,
          -0.010340563952922821,
          1.094932198524475,
          -0.02727551758289337,
          -0.05605553090572357,
          -0.1268770396709442,
          0.04130996763706207,
          -0.006387362722307444,
          -0.7108127474784851,
          -0.0384971909224987,
          0.012876331806182861,
          -0.022055895999073982,
          -0.021075662225484848,
          -0.028524644672870636,
          0.027445659041404724,
          -0.017264723777770996,
          -0.03922576084733009,
          -0.004990391433238983,
          0.0657026469707489,
          -0.14929935336112976,
          -0.07453857362270355,
          0.037357181310653687,
          0.07726962864398956,
          0.07029871642589569,
          0.03515389561653137,
          0.6740973591804504,
          -0.0765041708946228,
          0.017212867736816406,
          -0.08179305493831635,
          0.3428124487400055,
          0.003771059215068817,
          0.34197545051574707,
          -0.0108918072655797,
          0.04511389508843422,
          -0.04067196696996689,
          -0.07516687363386154,
          -0.6418258547782898,
          -0.03716541454195976,
          -0.0051018595695495605,
          -0.025089694187045097,
          0.07837508618831635,
          -1.0176182985305786,
          0.016733087599277496,
          0.048766762018203735,
          -0.0577896386384964,
          -1.2975329160690308,
          0.0695701539516449,
          -0.014735938981175423,
          0.2975749373435974,
          1.8231006860733032,
          0.06490382552146912,
          0.014853954315185547,
          -1.6832623481750488,
          -0.07575425505638123,
          -0.014788039028644562,
          -0.032405976206064224,
          -0.08097290247678757,
          0.005449122283607721,
          -0.0759035274386406,
          0.06034037470817566,
          0.06844670325517654,
          1.6815441846847534
        ],
        [
          -0.0037103891372680664,
          0.023450888693332672,
          0.07871073484420776,
          0.08855485916137695,
          -0.0678156316280365,
          -0.08139512687921524,
          -0.28459295630455017,
          0.0352974608540535,
          -0.06763003021478653,
          0.32435768842697144,
          -0.0681358203291893,
          0.04265765845775604,
          -0.04296470806002617,
          -0.016374267637729645,
          -0.057010747492313385,
          0.025050021708011627,
          -0.04989951476454735,
          -0.05696547031402588,
          0.018549874424934387,
          0.05175410211086273,
          -0.025950182229280472,
          -0.02242272160947323,
          -0.015345290303230286,
          0.045510947704315186,
          -0.030590705573558807,
          0.2850289046764374,
          -0.04535064101219177,
          -0.008134789764881134,
          0.2443147599697113,
          0.015689127147197723,
          0.2567853331565857,
          -0.2505913972854614,
          0.05927686393260956,
          -0.039633963257074356,
          0.04898536205291748,
          -0.022021766752004623,
          -0.032766588032245636,
          0.053260549902915955,
          0.05733335018157959,
          -0.04327305033802986,
          -0.21498945355415344,
          0.04129822552204132,
          0.06750254333019257,
          -0.04799921065568924,
          0.0474858283996582,
          -0.07685716450214386,
          0.3082219958305359,
          0.06451040506362915,
          -0.04958708584308624,
          -0.027450531721115112,
          -0.019777394831180573,
          0.02769303321838379,
          -0.031910836696624756,
          0.07483860850334167,
          0.06112931668758392,
          -0.0397152416408062,
          0.08100390434265137,
          0.05523619055747986,
          -0.03607027232646942,
          -0.026994772255420685,
          0.011623412370681763,
          0.024050898849964142,
          0.08063614368438721,
          -0.175959050655365,
          0.016263917088508606,
          0.05779223144054413,
          -0.20436827838420868,
          -0.06989032030105591,
          -0.04181500896811485,
          0.3351108729839325,
          -0.00616522878408432,
          0.011622592806816101,
          -0.08052653819322586,
          0.0702688992023468,
          0.051058679819107056,
          -0.057478681206703186,
          -0.06876030564308167,
          0.03028656542301178,
          -0.03975114971399307,
          -0.13238199055194855,
          0.06426568329334259,
          -0.07573429495096207,
          0.035203397274017334,
          0.23655180633068085,
          -0.008046969771385193,
          -0.003696225583553314,
          -0.18941953778266907,
          -0.03814553841948509,
          0.030081167817115784,
          0.052593961358070374,
          -0.22379645705223083,
          -0.06786464154720306,
          0.06920444965362549,
          0.050504714250564575,
          -0.04169373959302902,
          0.029566466808319092,
          -0.23973387479782104,
          0.050619736313819885,
          0.02293182909488678,
          -0.19329200685024261
        ],
        [
          -0.003428734838962555,
          0.0349973663687706,
          -0.04926585778594017,
          0.09362725913524628,
          -0.04806471988558769,
          -0.0375998318195343,
          -0.07547085732221603,
          0.0575563907623291,
          -0.05563751608133316,
          0.017817534506320953,
          0.05519215762615204,
          -0.03698350489139557,
          -0.04654386267066002,
          5.540996789932251e-05,
          0.015399210155010223,
          -0.007960520684719086,
          0.008306480944156647,
          -0.034068312495946884,
          0.08130116760730743,
          -0.052116312086582184,
          -0.040196437388658524,
          0.061137065291404724,
          0.0696309506893158,
          0.08064207434654236,
          -0.037286821752786636,
          0.009053167887032032,
          -0.03265875205397606,
          0.059350863099098206,
          -0.011623169295489788,
          -0.06593643128871918,
          0.12026192247867584,
          -0.04690397530794144,
          -0.00517302006483078,
          -0.03481408581137657,
          -0.04933061823248863,
          -0.04907913878560066,
          -0.030498072504997253,
          0.02143137902021408,
          0.01407642662525177,
          -0.051357924938201904,
          -0.047938309609889984,
          -0.0074150413274765015,
          0.03577427566051483,
          -0.009208783507347107,
          0.040708452463150024,
          0.07062454521656036,
          0.22174817323684692,
          0.030257143080234528,
          0.02857811003923416,
          0.05915297567844391,
          -0.04451474919915199,
          -0.044632602483034134,
          -0.015332959592342377,
          0.04015646129846573,
          -0.05790971219539642,
          0.00926554948091507,
          -0.04193781316280365,
          0.04175803065299988,
          0.07330628484487534,
          0.07885809242725372,
          -0.057384852319955826,
          0.08151334524154663,
          -0.024117428809404373,
          0.05608484148979187,
          0.06636334955692291,
          0.0768904983997345,
          -0.06696312129497528,
          -0.015017718076705933,
          0.05839994549751282,
          0.1398981660604477,
          0.05529017746448517,
          -0.051545388996601105,
          0.07291555404663086,
          -0.07757528126239777,
          0.008459508419036865,
          0.07351057231426239,
          0.05127382278442383,
          0.08052921295166016,
          0.02626439929008484,
          -0.06685824692249298,
          0.07061097025871277,
          0.05426107347011566,
          0.045791178941726685,
          0.12461470067501068,
          0.02547600120306015,
          -0.05963299795985222,
          -0.11449235677719116,
          -0.039701592177152634,
          -0.06288320571184158,
          0.03553012013435364,
          0.04424815997481346,
          -0.017720699310302734,
          0.013851940631866455,
          0.022443465888500214,
          0.018094472587108612,
          -0.019682832062244415,
          -0.08755616098642349,
          -0.036005403846502304,
          -0.030412904918193817,
          -0.13777600228786469
        ],
        [
          -0.06563454866409302,
          0.016681291162967682,
          0.031430840492248535,
          0.07171608507633209,
          0.00243493914604187,
          -0.04509560763835907,
          0.03557521849870682,
          -0.008546411991119385,
          0.022574596107006073,
          -0.05773269385099411,
          0.006972715258598328,
          -0.07659154385328293,
          0.032404735684394836,
          0.0734327882528305,
          -0.03647475317120552,
          0.024530857801437378,
          -0.015803076326847076,
          0.027141697704792023,
          0.03677733987569809,
          0.03029010444879532,
          0.0671580582857132,
          0.016099847853183746,
          0.029631122946739197,
          0.08073018491268158,
          -0.07114413380622864,
          -0.0189918652176857,
          0.043387144804000854,
          -0.04875164479017258,
          0.07008685171604156,
          -5.0045549869537354e-05,
          -0.009721092879772186,
          0.06969998776912689,
          0.053146615624427795,
          0.05103938281536102,
          -0.049758896231651306,
          -0.018856152892112732,
          -0.07366684079170227,
          -0.05769360810518265,
          0.05715660750865936,
          0.0012257695198059082,
          0.06379759311676025,
          0.017739415168762207,
          -0.0320003442466259,
          0.006519101560115814,
          -0.03310060128569603,
          0.05096156895160675,
          -0.042901378124952316,
          -0.03632231056690216,
          0.03969497233629227,
          -0.029174797236919403,
          0.021095968782901764,
          -0.03119438886642456,
          0.0052950382232666016,
          -0.046025704592466354,
          -0.022600699216127396,
          0.03215987980365753,
          0.04851043224334717,
          0.03740799427032471,
          0.00586584210395813,
          -0.061062611639499664,
          -0.01214735209941864,
          0.014107540249824524,
          0.08154560625553131,
          -0.04243181273341179,
          -0.003843165934085846,
          0.07060778141021729,
          0.055567413568496704,
          -0.0034204870462417603,
          0.0513421893119812,
          0.07020831108093262,
          -0.07658234983682632,
          -0.07971478253602982,
          -0.012940891087055206,
          -0.06411051005125046,
          -0.04281452298164368,
          0.07715140283107758,
          -0.028937168419361115,
          0.05957984924316406,
          0.061441391706466675,
          -0.019842974841594696,
          -0.03896579518914223,
          -0.08060259371995926,
          -0.010830201208591461,
          -0.07768931984901428,
          -0.07827210426330566,
          0.0646490603685379,
          -0.02282552421092987,
          0.0160941481590271,
          -0.07971549034118652,
          0.016513042151927948,
          -0.07079470157623291,
          0.0710260272026062,
          0.003787897527217865,
          0.07841065526008606,
          -0.07817888259887695,
          0.038408391177654266,
          0.045318156480789185,
          0.053337663412094116,
          -0.028624169528484344,
          0.05609789490699768
        ],
        [
          -0.049433544278144836,
          -0.07063733041286469,
          -0.07449177652597427,
          -0.05651674419641495,
          -0.04108351469039917,
          -0.07005735486745834,
          -0.049493174999952316,
          -0.08209042996168137,
          -0.03080230951309204,
          0.06747010350227356,
          -0.04462983086705208,
          0.029337890446186066,
          -0.02992868423461914,
          0.038974419236183167,
          -0.040540389716625214,
          -0.02666085585951805,
          -0.026652134954929352,
          -0.0468197762966156,
          0.0643032044172287,
          0.06624335050582886,
          -0.028407536447048187,
          0.07822592556476593,
          -0.00976475328207016,
          -0.03233388811349869,
          0.060842543840408325,
          -0.024537790566682816,
          -0.07032172381877899,
          0.06096719205379486,
          0.014559529721736908,
          -0.024967581033706665,
          0.05552053451538086,
          -0.020368210971355438,
          0.025077462196350098,
          -0.027604643255472183,
          0.020483702421188354,
          0.04707394540309906,
          0.009650811553001404,
          0.012979939579963684,
          0.037365078926086426,
          0.05837385356426239,
          0.0627974271774292,
          -0.005851857364177704,
          -0.07802867889404297,
          0.07732178270816803,
          0.028828628361225128,
          -0.02031116932630539,
          -0.026488926261663437,
          -0.04516282305121422,
          -0.029735837131738663,
          0.03084293007850647,
          0.04484251141548157,
          0.08030450344085693,
          -0.04650530591607094,
          0.00831005722284317,
          0.024870865046977997,
          -0.042920589447021484,
          -0.04833151772618294,
          0.06974269449710846,
          0.029859937727451324,
          -0.04184366762638092,
          -0.05266662687063217,
          -0.05472970008850098,
          -0.010196685791015625,
          -0.05250094085931778,
          -0.08047768473625183,
          -0.023819830268621445,
          -0.009799934923648834,
          -0.019062042236328125,
          -0.03628787770867348,
          -0.06483324617147446,
          0.04764413833618164,
          0.060719817876815796,
          -0.07058469206094742,
          0.050702184438705444,
          0.06542383134365082,
          -0.08130169659852982,
          0.03125254809856415,
          0.04798559844493866,
          -0.05678834021091461,
          -0.07897885143756866,
          -0.02568259835243225,
          0.06633858382701874,
          -0.01515757292509079,
          0.0586155503988266,
          0.029314592480659485,
          0.03909227252006531,
          0.018769122660160065,
          -0.015869759023189545,
          -0.06555739045143127,
          0.018812552094459534,
          0.06966692209243774,
          -0.061148978769779205,
          -0.07621493935585022,
          0.022727370262145996,
          -0.06238804757595062,
          0.035943157970905304,
          -0.04709663614630699,
          -0.04708333685994148,
          -0.05512075871229172,
          -0.02621256187558174
        ],
        [
          -0.04241425544023514,
          -0.025005079805850983,
          0.04926173388957977,
          -0.0009973347187042236,
          -0.029063820838928223,
          0.004680022597312927,
          -0.0018596798181533813,
          0.01877739280462265,
          -0.07326842099428177,
          0.06441126763820648,
          0.026929989457130432,
          0.03264351189136505,
          0.05552944540977478,
          0.03460163623094559,
          -0.01742596924304962,
          -0.026203371584415436,
          0.05292558670043945,
          -0.006306648254394531,
          0.03294234722852707,
          -0.054329924285411835,
          -0.04350268468260765,
          0.08077512681484222,
          0.03127250820398331,
          0.05215010046958923,
          0.02303428202867508,
          -0.02095867320895195,
          0.019361920654773712,
          0.03914383053779602,
          0.01182509958744049,
          -0.018304206430912018,
          0.05616331100463867,
          -0.07102728635072708,
          -0.05103540048003197,
          -0.004826769232749939,
          -0.02433958277106285,
          -0.06541758030653,
          -0.0006591752171516418,
          -0.03430040553212166,
          -0.038335852324962616,
          0.07700242102146149,
          0.03722198307514191,
          -0.07479583472013474,
          0.0034611448645591736,
          -0.04254933446645737,
          -0.037978872656822205,
          -0.05571518838405609,
          0.05652010440826416,
          0.01941569894552231,
          -0.02371608093380928,
          -0.043899595737457275,
          -0.07437728345394135,
          -0.0014896392822265625,
          0.06325012445449829,
          -0.05531154200434685,
          -0.018628284335136414,
          -0.014790423214435577,
          0.01928739994764328,
          -0.013147607445716858,
          -0.0547950342297554,
          -0.05283352732658386,
          -0.010962456464767456,
          -0.05660014599561691,
          -0.05998341366648674,
          0.06565546989440918,
          -0.04049660637974739,
          0.05294688045978546,
          -0.07575863599777222,
          -0.039739422500133514,
          0.018367163836956024,
          -0.022572219371795654,
          -0.011782772839069366,
          0.005306646227836609,
          -0.048176128417253494,
          0.044986337423324585,
          -0.06369130313396454,
          0.054939642548561096,
          -0.04724518954753876,
          -0.04361427202820778,
          0.07019636034965515,
          0.039712004363536835,
          -0.06055048108100891,
          0.010727748274803162,
          -0.01245243102312088,
          -0.043275050818920135,
          -0.012258999049663544,
          -0.0509156808257103,
          -0.06994844228029251,
          0.04923483729362488,
          -0.0772378072142601,
          -0.06695295125246048,
          -0.05679688602685928,
          -0.006458364427089691,
          0.05109550058841705,
          0.01954219490289688,
          0.008340694010257721,
          0.026403583586215973,
          -0.06898477673530579,
          0.030122943222522736,
          -0.07201138138771057,
          0.05531059205532074
        ],
        [
          -0.03766198828816414,
          -0.0253404900431633,
          0.03327029198408127,
          -0.03162461146712303,
          -0.06522703170776367,
          0.07632659375667572,
          -0.08219710737466812,
          0.04882329702377319,
          -0.04172239825129509,
          -0.04095432907342911,
          -0.05523603782057762,
          -0.06372079253196716,
          0.05396236479282379,
          -0.05310460552573204,
          -0.07548342645168304,
          0.05465833842754364,
          -0.023034144192934036,
          0.017745524644851685,
          0.07440902292728424,
          0.03807082027196884,
          0.020827561616897583,
          -0.06119590625166893,
          0.07323689758777618,
          -0.07836843281984329,
          0.08055737614631653,
          -0.03194984421133995,
          0.043581604957580566,
          -0.06065274029970169,
          0.06894749402999878,
          -0.04114433005452156,
          0.05376972258090973,
          -0.03567657619714737,
          -0.013659343123435974,
          -0.04875466972589493,
          -0.02495184913277626,
          0.008792169392108917,
          -0.026643630117177963,
          0.04310356080532074,
          0.04035905748605728,
          -0.05672638863325119,
          0.07939815521240234,
          0.025703616440296173,
          0.03559095412492752,
          0.023523688316345215,
          -0.05415831133723259,
          -0.004229061305522919,
          0.05179828405380249,
          0.045701056718826294,
          0.022203750908374786,
          0.02138037234544754,
          -0.04600134864449501,
          0.0733746886253357,
          -0.00217331200838089,
          -0.02064971998333931,
          0.002205498516559601,
          0.08029258251190186,
          -0.02221076190471649,
          0.06716422736644745,
          -0.06225479394197464,
          0.031746648252010345,
          -0.05822225660085678,
          -0.0823420062661171,
          0.04045278578996658,
          -0.008538082242012024,
          0.06442506611347198,
          0.036082737147808075,
          0.0705464631319046,
          -0.014274440705776215,
          0.07626673579216003,
          0.034265972673892975,
          -0.07787932455539703,
          0.004108533263206482,
          0.04854805767536163,
          -0.006214410066604614,
          0.04645344614982605,
          -0.07353530079126358,
          -0.02662542089819908,
          -0.04588726535439491,
          -0.006319262087345123,
          0.0503586083650589,
          0.0074928998947143555,
          0.07599662244319916,
          0.033207476139068604,
          0.07142649590969086,
          0.024141117930412292,
          -0.04586035758256912,
          -0.04573199525475502,
          -0.06140802055597305,
          0.054502859711647034,
          0.026662230491638184,
          -0.07170653343200684,
          0.03814622759819031,
          0.07659925520420074,
          0.000844515860080719,
          0.06545890867710114,
          -0.03818366304039955,
          -0.05684322118759155,
          -0.03892819955945015,
          -0.05411073565483093,
          0.07585649192333221
        ],
        [
          0.05229771137237549,
          -0.00036587566137313843,
          -0.06731723248958588,
          0.06836521625518799,
          0.051740631461143494,
          -0.009903371334075928,
          0.0005144476890563965,
          -0.02927933633327484,
          0.0120229572057724,
          0.060864970088005066,
          0.07544940710067749,
          0.010808542370796204,
          -0.007610969245433807,
          0.04177914559841156,
          -0.062244266271591187,
          0.017921186983585358,
          0.06856542825698853,
          0.007026553153991699,
          -0.020791281014680862,
          0.03540676832199097,
          -0.011203914880752563,
          0.034653156995773315,
          0.06864416599273682,
          0.05183945596218109,
          -0.042564477771520615,
          0.07545451819896698,
          0.014941133558750153,
          -0.04182400554418564,
          -0.04254766181111336,
          0.015887044370174408,
          -0.050475914031267166,
          -0.012936808168888092,
          0.07321622967720032,
          0.02529144287109375,
          -0.07609398663043976,
          0.04115564376115799,
          -0.030114203691482544,
          0.04412658512592316,
          -0.07129056751728058,
          0.041993774473667145,
          0.013350196182727814,
          0.06979843974113464,
          0.027175404131412506,
          -0.060992076992988586,
          -0.012243613600730896,
          0.06763072311878204,
          -0.03247857466340065,
          -0.011519171297550201,
          -0.04577552154660225,
          -0.02293931320309639,
          -0.056979693472385406,
          0.0366329550743103,
          -0.037990208715200424,
          0.01204882562160492,
          -0.0672316923737526,
          0.02112670987844467,
          -0.05397271364927292,
          -0.062182098627090454,
          0.024348385632038116,
          0.02677421271800995,
          0.06618824601173401,
          0.02574782818555832,
          0.012925438582897186,
          0.013794325292110443,
          -0.07915312051773071,
          -0.06195336580276489,
          -0.06581152230501175,
          -0.08116824924945831,
          0.014934711158275604,
          -0.02884628251194954,
          0.009836740791797638,
          0.0637790858745575,
          -0.0645790547132492,
          0.07551027834415436,
          -0.007716603577136993,
          0.07890678942203522,
          0.05323794484138489,
          -0.05256764590740204,
          -0.006327114999294281,
          -0.017297841608524323,
          -0.0070377737283706665,
          0.032736361026763916,
          -0.056436844170093536,
          -0.009534530341625214,
          0.0730602890253067,
          -0.029771961271762848,
          -0.03781517595052719,
          -0.05637544021010399,
          -0.022115714848041534,
          -0.0015019029378890991,
          0.06972794234752655,
          0.05819639563560486,
          -0.05527292564511299,
          0.060567617416381836,
          -0.06747287511825562,
          0.013680733740329742,
          0.034461431205272675,
          -0.0769999772310257,
          -0.06361403316259384,
          0.008748389780521393
        ],
        [
          0.05708296597003937,
          0.06216864287853241,
          -0.03852824494242668,
          -0.07327859103679657,
          0.05508379638195038,
          -0.052823781967163086,
          0.003997795283794403,
          -0.005882672965526581,
          -0.061352021992206573,
          0.07111811637878418,
          0.04311627149581909,
          -0.007050678133964539,
          0.07025454938411713,
          -0.012027256190776825,
          0.08097812533378601,
          -0.07486515492200851,
          0.07142095267772675,
          -0.013531826436519623,
          -0.02998678758740425,
          0.01733105629682541,
          0.03706716001033783,
          -0.00524517148733139,
          0.04526323080062866,
          0.0691574364900589,
          -0.05158650130033493,
          -0.0464453399181366,
          -0.0031939148902893066,
          0.03176894038915634,
          -0.023022890090942383,
          -0.058015741407871246,
          -0.01205829530954361,
          -0.0808025524020195,
          0.06747886538505554,
          0.014262303709983826,
          0.030139148235321045,
          -0.016205109655857086,
          0.05160686373710632,
          0.045563697814941406,
          0.06810073554515839,
          -0.008066058158874512,
          0.08039748668670654,
          0.032946452498435974,
          0.04422074556350708,
          0.009249910712242126,
          -0.06098846346139908,
          0.06739543378353119,
          -0.051303714513778687,
          -0.019343361258506775,
          -0.00517437607049942,
          0.05728067457675934,
          0.07070092856884003,
          -0.07465288043022156,
          -0.06169799715280533,
          -0.01881374418735504,
          0.02949673682451248,
          -0.058104757219552994,
          -0.05164666473865509,
          0.028899751603603363,
          -0.01786595582962036,
          0.021360889077186584,
          -0.07472249120473862,
          0.06265436112880707,
          0.00857970118522644,
          -0.06935654580593109,
          0.02465268224477768,
          0.021200373768806458,
          0.0007284879684448242,
          -0.05535104125738144,
          -0.04499046131968498,
          0.05311623215675354,
          -0.05656206235289574,
          0.03595248609781265,
          -0.043164703994989395,
          0.06970703601837158,
          -0.05608794093132019,
          -0.05116282030940056,
          -0.024586699903011322,
          0.04701779782772064,
          -0.0319625549018383,
          0.014798276126384735,
          -0.04782535880804062,
          -0.05140088498592377,
          -0.0279390886425972,
          0.044212520122528076,
          -0.05521782860159874,
          -0.04479486495256424,
          -0.03565025329589844,
          -0.0643652081489563,
          0.01338447630405426,
          0.018264196813106537,
          -0.07867597043514252,
          -0.0062883272767066956,
          0.01660274714231491,
          0.06288965046405792,
          0.042464613914489746,
          -0.07796941697597504,
          -0.05467242747545242,
          0.023124225437641144,
          -0.05670313164591789,
          0.004625573754310608
        ],
        [
          0.06392897665500641,
          -0.012892849743366241,
          0.05101422965526581,
          0.04281799495220184,
          0.058313578367233276,
          0.006520591676235199,
          -0.05389219895005226,
          0.02167971432209015,
          -0.007512643933296204,
          -0.07289549708366394,
          0.056157439947128296,
          0.0006226971745491028,
          -0.028114691376686096,
          0.06632982194423676,
          0.03164254128932953,
          0.04349546134471893,
          0.06592428684234619,
          0.004350997507572174,
          0.04689702391624451,
          0.026626110076904297,
          0.06105978786945343,
          -0.07801330089569092,
          0.026710353791713715,
          0.07752923667430878,
          -0.03492547944188118,
          0.02285284548997879,
          -0.016524136066436768,
          0.004416346549987793,
          0.0355599969625473,
          -0.07366400957107544,
          0.052710846066474915,
          -0.038270384073257446,
          0.03264617919921875,
          0.07670457661151886,
          0.0554734468460083,
          0.05499783158302307,
          0.022496499121189117,
          0.01761571317911148,
          0.018163904547691345,
          0.053642258048057556,
          -0.056893207132816315,
          -0.04339280724525452,
          0.040274590253829956,
          -0.04691504314541817,
          -0.03028303012251854,
          0.02946055680513382,
          0.019300855696201324,
          0.04260881245136261,
          -0.041206613183021545,
          -0.024499058723449707,
          0.044416338205337524,
          -0.0077130720019340515,
          0.023503869771957397,
          -0.06344941258430481,
          -0.07104577124118805,
          0.05100607872009277,
          -0.032001152634620667,
          -0.06026233360171318,
          -0.004696838557720184,
          -0.044270891696214676,
          -0.0003466084599494934,
          0.035372063517570496,
          -0.05840775743126869,
          -0.039809759706258774,
          0.011515438556671143,
          0.014884725213050842,
          -0.004399202764034271,
          -0.015872426331043243,
          -0.032487254589796066,
          0.010736435651779175,
          -0.007011592388153076,
          -0.06813733279705048,
          0.08138462901115417,
          0.01959666609764099,
          0.057425886392593384,
          -0.026308279484510422,
          -0.0427456758916378,
          0.07267259061336517,
          -0.0583169125020504,
          0.015463128685951233,
          0.0407164990901947,
          0.0604155957698822,
          -0.043337926268577576,
          -0.03394262120127678,
          -0.057682234793901443,
          0.029845423996448517,
          -0.05749746039509773,
          0.08213639259338379,
          0.0077819377183914185,
          0.03732197731733322,
          0.06295157968997955,
          -0.0317029245197773,
          -0.024530582129955292,
          0.009610913693904877,
          -0.02913350984454155,
          -0.04548748955130577,
          -0.05609096586704254,
          -0.07034385949373245,
          0.07983624935150146,
          0.07765471935272217
        ],
        [
          0.0073394775390625,
          -0.02030162140727043,
          0.06613025069236755,
          0.0631018877029419,
          0.06861241161823273,
          0.007164463400840759,
          -0.03310588747262955,
          -0.05027022212743759,
          -0.06788402795791626,
          -0.05959393084049225,
          -0.006595544517040253,
          0.061445534229278564,
          0.0348648801445961,
          -0.03963964059948921,
          -0.07943309843540192,
          0.06673727929592133,
          -0.06054621934890747,
          0.029992304742336273,
          0.03458378463983536,
          -0.045823369175195694,
          -0.013399697840213776,
          0.0605282336473465,
          -0.04352853447198868,
          -0.039691317826509476,
          -0.07812806963920593,
          0.07163916528224945,
          -0.0672401562333107,
          0.011759243905544281,
          -0.07382849603891373,
          -0.04255090281367302,
          -0.08152320235967636,
          0.011829674243927002,
          0.027658283710479736,
          -0.03639253228902817,
          -0.024724550545215607,
          -0.043155569583177567,
          0.033913902938365936,
          -0.007259294390678406,
          0.037821851670742035,
          0.04580366611480713,
          -0.08209254592657089,
          0.07083845138549805,
          -0.02882823348045349,
          -0.02122875303030014,
          -0.024413377046585083,
          0.0231984481215477,
          0.002421371638774872,
          -0.05305076763033867,
          0.05624988675117493,
          0.0458197146654129,
          0.00034637004137039185,
          -0.016125068068504333,
          0.03994034230709076,
          -0.015127815306186676,
          -0.05892721563577652,
          0.01977672427892685,
          0.047426193952560425,
          0.018444575369358063,
          0.07150651514530182,
          0.07064634561538696,
          0.044271066784858704,
          0.07511281967163086,
          -0.029013950377702713,
          0.016375049948692322,
          0.02836601436138153,
          0.02234271913766861,
          0.028446190059185028,
          -0.0024287551641464233,
          -0.04155699163675308,
          0.0722762942314148,
          0.007263444364070892,
          -0.07882814109325409,
          -0.03143005445599556,
          0.0011856034398078918,
          0.047603070735931396,
          0.01865009218454361,
          0.07382853329181671,
          -0.06950130313634872,
          0.06485450267791748,
          -0.07930870354175568,
          -0.021840881556272507,
          -0.003124244511127472,
          0.04193136841058731,
          0.07841725647449493,
          0.0025746971368789673,
          -0.03642553091049194,
          0.019252747297286987,
          0.028829939663410187,
          -0.010082565248012543,
          -0.0014157295227050781,
          -0.060287121683359146,
          -0.06868230551481247,
          0.012560032308101654,
          0.05815647542476654,
          -0.05073275417089462,
          -0.07315467298030853,
          0.05592799186706543,
          0.028186701238155365,
          0.013163737952709198,
          -0.03215591236948967
        ],
        [
          -0.006184414029121399,
          -0.0008575171232223511,
          -0.08017928153276443,
          0.016484811902046204,
          -0.048157744109630585,
          0.06861542165279388,
          -0.07725843042135239,
          -0.027811259031295776,
          -0.052754562348127365,
          0.026280604302883148,
          0.051776111125946045,
          -0.041594941169023514,
          -0.02532157301902771,
          0.07677847146987915,
          0.018599919974803925,
          0.06467016041278839,
          0.011361762881278992,
          0.02023865282535553,
          0.00021920353174209595,
          0.023453310132026672,
          -0.03941776230931282,
          -0.05432731285691261,
          -0.07547217607498169,
          0.04244472086429596,
          -0.06423895061016083,
          0.07530829310417175,
          -0.06433309614658356,
          0.009735524654388428,
          -0.017715439200401306,
          -0.0682598426938057,
          0.05091278254985809,
          -0.06257280707359314,
          -0.06815680116415024,
          -0.06669673323631287,
          -0.009352527558803558,
          -0.07150321453809738,
          -0.07203371077775955,
          0.010551229119300842,
          0.058965086936950684,
          -0.0392143651843071,
          0.065680131316185,
          0.06112988293170929,
          0.060922637581825256,
          -0.07841555029153824,
          0.06299452483654022,
          0.04787321388721466,
          -0.05246949568390846,
          -0.007580287754535675,
          0.06001526117324829,
          -0.04480384290218353,
          0.038546122610569,
          0.001720711588859558,
          0.04032745212316513,
          0.011267870664596558,
          0.010896258056163788,
          0.05314110219478607,
          -0.007159985601902008,
          0.044475212693214417,
          0.01957888901233673,
          0.058119356632232666,
          -0.054405681788921356,
          0.04677487909793854,
          0.06642872095108032,
          0.051862359046936035,
          0.019737184047698975,
          -0.012138448655605316,
          0.04825949668884277,
          0.04811073839664459,
          -0.02967064455151558,
          0.025571107864379883,
          0.07597935199737549,
          0.05270220339298248,
          0.06980276107788086,
          -0.02424895390868187,
          0.07561813294887543,
          0.06540268659591675,
          0.03804942965507507,
          -0.021536801010370255,
          -0.06835514307022095,
          -0.05231137573719025,
          -0.0754837840795517,
          -0.01690429449081421,
          0.08017343282699585,
          0.07275094091892242,
          0.02589956670999527,
          0.07138969004154205,
          -0.024113323539495468,
          -0.06267763674259186,
          0.07195448875427246,
          -0.00917845219373703,
          -0.05679541081190109,
          -0.010857172310352325,
          0.019902005791664124,
          0.04004717618227005,
          -0.04252751171588898,
          -0.0642729103565216,
          -0.0485149584710598,
          -0.03488513454794884,
          -0.05775386840105057,
          0.03624354302883148
        ],
        [
          0.04289063811302185,
          -0.03979797661304474,
          -0.04303820803761482,
          -0.08235907554626465,
          0.041017599403858185,
          0.007184833288192749,
          -0.010415539145469666,
          -0.004651620984077454,
          0.05560564994812012,
          -0.0015333443880081177,
          0.04989148676395416,
          -0.009849965572357178,
          -0.012875154614448547,
          0.06301069259643555,
          -0.027027379721403122,
          -0.07331756502389908,
          0.018595069646835327,
          0.065700963139534,
          0.04176747798919678,
          -0.06223028153181076,
          0.060150548815727234,
          -0.03451211005449295,
          -0.06471869349479675,
          -0.06390660256147385,
          0.050669461488723755,
          -0.0790284276008606,
          0.05473467707633972,
          -0.057717159390449524,
          0.06706170737743378,
          0.05012553930282593,
          -0.03947218880057335,
          0.02214297652244568,
          -0.08097665756940842,
          0.026481211185455322,
          -0.0016939640045166016,
          -0.03284238651394844,
          0.075174480676651,
          0.07482786476612091,
          -0.06060945242643356,
          -0.026354223489761353,
          -0.032780472189188004,
          -0.07552583515644073,
          0.053832992911338806,
          0.030411355197429657,
          -0.05643802136182785,
          0.03416110575199127,
          0.045180290937423706,
          -0.002007625997066498,
          0.060303106904029846,
          -0.04831431061029434,
          -0.04890776053071022,
          -0.048707135021686554,
          0.01744726300239563,
          0.039991192519664764,
          0.08013053238391876,
          0.04556892812252045,
          0.04120950400829315,
          -0.023111984133720398,
          0.050563082098960876,
          0.06562961637973785,
          -0.06479494273662567,
          -0.058136794716119766,
          -0.04759678244590759,
          0.05730445683002472,
          -0.037516023963689804,
          0.02562648057937622,
          -0.011466138064861298,
          -0.02452058345079422,
          -0.03283990919589996,
          0.0056157782673835754,
          -0.05942985787987709,
          0.046203047037124634,
          -0.063747838139534,
          -0.009673558175563812,
          -0.016751617193222046,
          0.04832698404788971,
          0.06003980338573456,
          -0.07697206735610962,
          -0.06494950503110886,
          0.006309576332569122,
          0.08026260137557983,
          -0.07058001309633255,
          -0.008466683328151703,
          -0.07751552760601044,
          0.046006157994270325,
          -0.05042453110218048,
          0.020124368369579315,
          -0.009505301713943481,
          -0.017688408493995667,
          -0.008909456431865692,
          0.013130009174346924,
          -0.06335625052452087,
          0.02659139782190323,
          0.054374098777770996,
          0.06763695180416107,
          0.024650536477565765,
          0.04520796239376068,
          0.011939436197280884,
          -0.055818408727645874,
          0.07500085234642029
        ],
        [
          0.03716021031141281,
          -0.07129968702793121,
          -0.024704083800315857,
          0.07446376979351044,
          -0.022594492882490158,
          0.0008304491639137268,
          -0.001296304166316986,
          0.06973487138748169,
          -0.07266595214605331,
          0.03871244937181473,
          0.06695432960987091,
          -0.004207685589790344,
          -0.06796067208051682,
          0.04137697070837021,
          -0.0726814717054367,
          0.07502433657646179,
          -0.05190696567296982,
          -0.06228522211313248,
          -0.04124114289879799,
          0.05149972438812256,
          0.036484576761722565,
          0.06024789810180664,
          -0.026279818266630173,
          -0.078019879758358,
          0.0349237322807312,
          0.018628187477588654,
          0.07782624661922455,
          -0.07615391165018082,
          0.04606708884239197,
          0.03812746703624725,
          0.07660070061683655,
          0.08216586709022522,
          -0.048770561814308167,
          0.045238763093948364,
          0.017626047134399414,
          0.06197303533554077,
          -0.07284379750490189,
          -0.06733813136816025,
          0.008422978222370148,
          -0.0027772635221481323,
          -0.0051415786147117615,
          -0.03207922726869583,
          -0.017633900046348572,
          0.006348229944705963,
          0.0554448664188385,
          0.06636500358581543,
          -0.052055418491363525,
          -0.015393003821372986,
          -0.058049462735652924,
          -0.025423791259527206,
          -0.008396618068218231,
          0.017886951565742493,
          0.06542286276817322,
          0.06754885613918304,
          0.0700666606426239,
          0.08208215236663818,
          0.07469025254249573,
          0.05625097453594208,
          -0.08001413196325302,
          0.039361193776130676,
          -0.019100971519947052,
          0.02983058989048004,
          0.04037095606327057,
          -0.008025124669075012,
          0.07545867562294006,
          -0.034095849841833115,
          -0.05661511421203613,
          0.07204978168010712,
          0.04750250279903412,
          -0.06967775523662567,
          0.01989353448152542,
          -0.030565384775400162,
          -0.06895045936107635,
          -0.06359156221151352,
          0.031165674328804016,
          0.01712736487388611,
          0.0811813473701477,
          -0.04782924801111221,
          0.07594670355319977,
          -0.0444553904235363,
          0.04353317618370056,
          -0.0668485090136528,
          -0.061422400176525116,
          0.05529525876045227,
          -0.06954175233840942,
          -0.06155115365982056,
          0.07213526964187622,
          0.05902776122093201,
          -0.07483063638210297,
          0.04399485886096954,
          0.07598194479942322,
          -0.030996710062026978,
          0.07027372717857361,
          -0.06426826119422913,
          0.053679317235946655,
          -0.01948380470275879,
          0.03354360908269882,
          0.07863923907279968,
          0.03945918381214142,
          0.0010993331670761108
        ],
        [
          0.07241114974021912,
          0.034566573798656464,
          0.07323753833770752,
          -0.05814138799905777,
          -0.036343153566122055,
          0.04786330461502075,
          0.04087723046541214,
          -0.027590718120336533,
          -0.058271266520023346,
          0.08109943568706512,
          -0.07123645395040512,
          -0.01681847870349884,
          -0.04990817606449127,
          -0.036543991416692734,
          -0.03624448925256729,
          0.033912040293216705,
          -0.06553387641906738,
          0.011658929288387299,
          0.027182161808013916,
          0.041350096464157104,
          0.07626189291477203,
          0.05860398709774017,
          -0.06332020461559296,
          0.0037321150302886963,
          -0.04365485534071922,
          -0.06485029309988022,
          0.01091977208852768,
          0.03505552560091019,
          0.041273199021816254,
          -0.07680564373731613,
          0.07694053649902344,
          -0.05547826737165451,
          -0.03723549470305443,
          -0.04567630961537361,
          -0.0782296434044838,
          0.05093330144882202,
          -0.0482061430811882,
          0.010472148656845093,
          -0.01643751561641693,
          -0.029097918421030045,
          0.06633749604225159,
          0.012271568179130554,
          0.04809889197349548,
          0.04573085904121399,
          0.028146743774414062,
          0.00541609525680542,
          0.053886547684669495,
          -0.08160585165023804,
          -0.011710233986377716,
          0.03937876969575882,
          -0.005196988582611084,
          -0.029718082398176193,
          0.03361216187477112,
          0.024228960275650024,
          0.06659650802612305,
          -0.06300872564315796,
          -0.022546056658029556,
          0.004263296723365784,
          -0.0018781870603561401,
          -0.07764184474945068,
          0.04327644407749176,
          -0.04539854824542999,
          -0.003013990819454193,
          0.06432861089706421,
          -0.011506855487823486,
          0.03946024924516678,
          0.02998260408639908,
          -0.038142748177051544,
          -0.041113391518592834,
          0.05125124752521515,
          0.02272244542837143,
          -0.014598183333873749,
          -0.03143441677093506,
          0.04091811180114746,
          -0.013220265507698059,
          0.057487279176712036,
          -0.05552888289093971,
          -0.020434226840734482,
          -0.025602810084819794,
          -0.01344452053308487,
          -0.010031983256340027,
          -0.03157833218574524,
          -0.04311571642756462,
          0.06929215788841248,
          0.010376468300819397,
          -0.005269840359687805,
          -0.010432571172714233,
          -0.05911676213145256,
          -0.06726105511188507,
          -0.024611134082078934,
          0.033505842089653015,
          -0.045701589435338974,
          -0.019021637737751007,
          -0.050754595547914505,
          0.019388966262340546,
          -0.05580051243305206,
          0.04406352341175079,
          -0.018009305000305176,
          -0.051814451813697815,
          0.06042809784412384
        ],
        [
          0.007225155830383301,
          0.03173401951789856,
          -0.042458683252334595,
          0.002629987895488739,
          -0.02328597754240036,
          -0.04740578308701515,
          -0.027543045580387115,
          -0.022024773061275482,
          0.04898986220359802,
          0.004188910126686096,
          -0.038083918392658234,
          0.0158846452832222,
          0.03630922734737396,
          0.02309287339448929,
          -0.05000387132167816,
          0.08172324299812317,
          -0.08152204006910324,
          -0.04350845888257027,
          0.036084190011024475,
          0.07623642683029175,
          -0.04471508041024208,
          -0.0773104652762413,
          -0.07967118173837662,
          -0.06025255098938942,
          0.07366974651813507,
          -0.04209659993648529,
          0.0242551788687706,
          0.04884779453277588,
          0.020024925470352173,
          -0.04310053214430809,
          0.04506714642047882,
          0.05474928021430969,
          -0.04275078326463699,
          0.05061429738998413,
          -0.04123309254646301,
          0.014427751302719116,
          -0.010797597467899323,
          0.0021450817584991455,
          -0.07626249641180038,
          0.06742432713508606,
          -0.010648675262928009,
          0.017797067761421204,
          -0.07560566067695618,
          -0.06668265163898468,
          0.025913000106811523,
          -0.0719078853726387,
          -0.0136333629488945,
          -0.04966206103563309,
          -0.0345676951110363,
          -0.0012132152915000916,
          -0.07104922831058502,
          -0.07986512780189514,
          0.00019749999046325684,
          -0.013670407235622406,
          -0.022613350301980972,
          0.06359219551086426,
          0.04940198361873627,
          0.020137332379817963,
          0.06729568541049957,
          0.008921027183532715,
          0.07164806127548218,
          -0.009554684162139893,
          0.06697449088096619,
          0.028301604092121124,
          0.022044137120246887,
          -0.07607954740524292,
          -0.01877330243587494,
          0.009254805743694305,
          0.02029268443584442,
          0.02064497023820877,
          0.03975392132997513,
          0.04836210608482361,
          -0.077192023396492,
          -0.056318849325180054,
          -0.005737870931625366,
          -0.04775511845946312,
          0.0672219842672348,
          0.022041484713554382,
          -0.04120853915810585,
          -0.040905438363552094,
          -0.04555594176054001,
          0.014918938279151917,
          -0.0481216236948967,
          0.025840796530246735,
          0.061381444334983826,
          0.05163426697254181,
          -0.005336545407772064,
          0.023727238178253174,
          -0.05639123171567917,
          -0.06100759655237198,
          -0.037703726440668106,
          0.031072668731212616,
          -0.06263116002082825,
          0.053469642996788025,
          0.08005133271217346,
          -0.03866485878825188,
          0.03658512234687805,
          -0.044507090002298355,
          0.02920284867286682,
          -0.08152512460947037
        ],
        [
          -0.06288589537143707,
          -0.056481607258319855,
          0.004803985357284546,
          0.002983078360557556,
          0.005017928779125214,
          -0.02580239251255989,
          0.03926284611225128,
          0.03201425075531006,
          -0.06337548047304153,
          -0.03942752256989479,
          0.05312110483646393,
          0.04811498522758484,
          0.006837792694568634,
          0.037152938544750214,
          -0.03479642793536186,
          0.0029973983764648438,
          -0.02823757380247116,
          0.04194975644350052,
          0.04120185971260071,
          -0.02417696639895439,
          0.01422969251871109,
          -0.05183607339859009,
          0.014644928276538849,
          -0.058114971965551376,
          0.029855698347091675,
          0.036322467029094696,
          0.022210843861103058,
          0.07440018653869629,
          0.04924526810646057,
          0.010559439659118652,
          -0.0026915445923805237,
          -0.011493071913719177,
          -0.052786245942115784,
          -0.07154197245836258,
          0.03380872309207916,
          -0.004648730158805847,
          0.008773356676101685,
          0.04483334720134735,
          -0.06799233704805374,
          -0.06365825235843658,
          -0.08204074949026108,
          -0.05077804997563362,
          0.04910565912723541,
          -0.047075144946575165,
          0.061020612716674805,
          -0.03890439495444298,
          -0.008892975747585297,
          0.01597205549478531,
          -0.08122740685939789,
          -0.030654050409793854,
          0.062252968549728394,
          0.05207924544811249,
          0.01882287859916687,
          0.05216999351978302,
          0.08173473179340363,
          -0.028411995619535446,
          -0.040932584553956985,
          -0.08039353787899017,
          -0.057825252413749695,
          0.010965675115585327,
          0.05954466760158539,
          -0.0770716741681099,
          0.0814262330532074,
          0.08048735558986664,
          -0.026509512215852737,
          0.015444032847881317,
          -0.025267615914344788,
          -0.04518498107790947,
          0.018508821725845337,
          -0.08198182284832001,
          0.022062502801418304,
          0.030351564288139343,
          0.08020362257957458,
          0.02060401439666748,
          -0.002647198736667633,
          -0.011436618864536285,
          -0.02380525693297386,
          0.06271325051784515,
          -0.06843943148851395,
          -0.027024980634450912,
          -0.012326352298259735,
          0.05139605700969696,
          0.0068373605608940125,
          0.052400559186935425,
          0.019241727888584137,
          -0.046362172812223434,
          0.06396156549453735,
          0.07570955157279968,
          -0.07233274728059769,
          -0.05072047933936119,
          0.02402970939874649,
          0.009895078837871552,
          -0.06261450052261353,
          0.08111745119094849,
          0.08165071904659271,
          0.014307774603366852,
          -0.06897703558206558,
          -0.06372962892055511,
          -0.06090109795331955,
          -0.059039369225502014
        ],
        [
          0.017096787691116333,
          -0.0015245452523231506,
          0.06940053403377533,
          -0.05219743400812149,
          0.004928357899188995,
          -0.03007810190320015,
          0.06947298347949982,
          -0.005209989845752716,
          0.06363515555858612,
          -0.0624878890812397,
          0.05464857816696167,
          0.0026692375540733337,
          0.025579355657100677,
          -0.04231904819607735,
          -0.03615539148449898,
          0.03633887320756912,
          -0.0003307536244392395,
          0.010729596018791199,
          -0.06586241722106934,
          0.04115230590105057,
          0.05097465217113495,
          0.05313864350318909,
          0.03586757928133011,
          -0.0769878402352333,
          0.043420836329460144,
          0.032916925847530365,
          0.05592244863510132,
          -0.06317359954118729,
          -0.017917416989803314,
          -0.026763740926980972,
          -0.008835367858409882,
          0.04821611940860748,
          -0.052543193101882935,
          0.05355386435985565,
          0.0023585930466651917,
          -0.06548456102609634,
          0.05825236439704895,
          0.04534563422203064,
          -0.04043958708643913,
          0.0757487565279007,
          0.03719748556613922,
          -0.013681836426258087,
          0.05001653730869293,
          0.03509925305843353,
          -0.06443829834461212,
          0.07630665600299835,
          -0.009209275245666504,
          0.08214466273784637,
          0.07420296967029572,
          0.07004110515117645,
          0.055846065282821655,
          -0.07221722602844238,
          -0.018931597471237183,
          0.0020065829157829285,
          -0.006273806095123291,
          0.0522964745759964,
          -0.05528359115123749,
          -0.05481848493218422,
          0.02708543837070465,
          -0.04554348811507225,
          0.0068645477294921875,
          -0.0047135502099990845,
          0.004113875329494476,
          0.029894448816776276,
          0.058671146631240845,
          -0.03452862799167633,
          0.03443609178066254,
          -0.0705600157380104,
          -0.06405647099018097,
          0.0001768544316291809,
          0.03587158024311066,
          0.07673381268978119,
          0.029559805989265442,
          -0.039589669555425644,
          0.027443714439868927,
          -0.025880709290504456,
          -0.07584922760725021,
          0.07453295588493347,
          0.07593372464179993,
          0.07962891459465027,
          -0.038339681923389435,
          -0.055767714977264404,
          0.00046003609895706177,
          0.029787927865982056,
          0.08133822679519653,
          -0.027490325272083282,
          -0.012936845421791077,
          0.0444519966840744,
          0.05347354710102081,
          -0.0789182186126709,
          -0.007900118827819824,
          0.05228477716445923,
          -0.008383087813854218,
          0.06449313461780548,
          -0.05180723965167999,
          0.03410675376653671,
          -0.024416401982307434,
          -0.001889243721961975,
          -0.06424570828676224,
          0.04239616543054581
        ],
        [
          0.014369800686836243,
          0.07561805844306946,
          -0.03407147526741028,
          0.07577976584434509,
          -0.07093166559934616,
          0.04189611226320267,
          0.050558000802993774,
          -0.026570815593004227,
          0.02336008846759796,
          0.0645139217376709,
          -0.032693006098270416,
          0.05255647003650665,
          -0.02040945738554001,
          0.08082504570484161,
          0.030327208340168,
          0.008473515510559082,
          -0.05689503625035286,
