{
  "layers": [
    {
      "weights": {
        "v": 1,
        "dim": [
          100,
          784
        ],
        "data": [
          -0.0022917249324258607,
          0.010075338559399702,
          -0.0022970207842861715,
          -0.007033041121949104,
          0.00364745952679448,
          -0.030442390687411627,
          -0.020052709106609383,
          -0.011481203978121177,
          -0.003330992279848711,
          0.013957203158075731,
          -0.030059368274715406,
          -0.0001378529418109272,
          0.014788929759390603,
          0.023504998116704482,
          0.005544132609117247,
          -0.026720603942233658,
          -0.003383759412493739,
          0.001761485164631813,
          0.002981510894147913,
          0.00682920751791203,
          0.007542834948373832,
          -0.013291582071123634,
          0.02855794651552093,
          -0.0013831031222005339,
          -0.013587490591726368,
          -0.01031125532525311,
          0.0018951982038797439,
          0.009875510338786477,
          -0.02679832878372691,
          0.005783337316537987,
          0.027264802978421702,
          0.006074880382928096,
          0.01001352710434621,
          0.003994995913909111,
          -0.014031536942558135,
          0.006243554279548234,
          -0.013393149741083249,
          0.02982094294761755,
          0.010147263035455423,
          0.010353530299239487,
          -0.0008226980454029483,
          -0.01406736152745242,
          -0.005636017513259422,
          0.009690437990253665,
          -0.002512113804321226,
          -0.0033676225457378328,
          0.007846067412669591,
          -0.003487083622684903,
          0.010910429416122039,
          -0.02074802364682645,
          -0.0031026689681803886,
          0.011510849170906086,
          0.005727954592487456,
          -0.014052497685105698,
          0.008304702444595743,
          0.005901398021284922,
          -0.0015655671675974005,
          -0.0109505154610339,
          0.012413145118692823,
          -0.0035971541051427053,
          -0.01985637447403089,
          0.01900201445480072,
          0.0001505375390206156,
          -0.015043288700895175,
          -0.011654417380439002,
          -0.02114933471426593,
          -0.007322502606671023,
          -0.013742238455986124,
          0.002067016335629479,
          -0.012351983171338088,
          0.0015047122427143936,
          0.021855683453129337,
          -0.005114571821739359,
          0.01969558487572711,
          0.013798078541051835,
          0.0063291354315568715,
          -0.00279276454508171,
          -0.009965293984128185,
          0.0034127779247979852,
          -0.009048372286571425,
          0.004737591554370348,
          0.003092705394342633,
          0.007213679087231419,
          -0.0006355966436466291,
          0.0030535408013105405,
          -0.014343017324186911,
          -0.017218521274314693,
          0.0035956223945525128,
          -0.015938733676324993,
          -0.015882679122126337,
          0.007273521041945264,
          -0.009249602087806185,
          -0.008794641725060727,
          -0.00007852029616959025,
          0.007632585752764883,
          0.00272491198210455,
          -0.028499332859421467,
          0.013347140336418796,
          -0.003049513730890655,
          -0.002780224827832372,
          -0.016435436874068694,
          0.015260308668255942,
          0.007206972849273015,
          0.01156897153836648,
          -0.0026529258223920056,
          0.01922151642664119,
          -0.018745275570783357,
          0.0015011034954454806,
          0.00613565288514356,
          0.011446763307944727,
          -0.015755261597078615,
          0.01403120490533507,
          0.019702014156272173,
          -0.0077401712573793285,
          0.003504961673697357,
          -0.011889584136337561,
          -0.00976243728683739,
          0.002272084290151515,
          0.004508140738671231,
          -0.0044209990662981355,
          0.02968236656185788,
          -0.01631022507750616,
          0.013866231513626122,
          -0.014239698542085677,
          0.007408442708218782,
          0.00771807093485066,
          -0.007124421636130599,
          -0.002222142787518081,
          -0.013182952076942384,
          0.006190986004555701,
          0.03361349198184454,
          0.020188883432686613,
          0.015096374335644648,
          0.010302425714770424,
          0.002089173267189473,
          0.011753793954861185,
          -0.01979409498855032,
          0.03142365942274408,
          0.025701524746709024,
          0.0006087844635228303,
          0.005813181166726547,
          0.005980013635111601,
          -0.02775836427990391,
          0.0040887005857903735,
          0.020441988352200107,
          0.03028506162576526,
          -0.005797816586051998,
          -0.0013940669341398427,
          0.003327237199230003,
          0.0014224805946183594,
          -0.018223264354346628,
          0.016458228903196627,
          -0.01813121561979829,
          -0.01919790967696423,
          0.01882227990012684,
          -0.009899591653015752,
          -0.01258427603497809,
          0.0006017860797943162,
          0.027494524908094307,
          -0.01994105296451203,
          -0.017716853747192788,
          0.011110358783830217,
          -0.0015772387089514834,
          0.004107902393264816,
          -0.010647926637414703,
          0.004003502468766039,
          0.0062500547769737584,
          -0.00232111082936187,
          -0.0016971448802392784,
          0.011808959694975023,
          -0.0181232394137621,
          -0.0025047894677441285,
          -0.008040251455398027,
          0.010896184921089439,
          -0.017345044368061828,
          0.010095682820359855,
          0.004174277355601728,
          -0.010577855823742361,
          -0.0027907993068470474,
          -0.032511047395431744,
          0.007210587300849893,
          0.015216041424363485,
          -0.01350205749883894,
          0.014610555383595292,
          -0.0054977386421637044,
          -0.011156208246765264,
          -0.008394587207504418,
          0.005779380960539163,
          -0.0254283540163753,
          0.0019740662532745736,
          0.006712392946007406,
          -0.028547089055615683,
          0.01904533493446547,
          0.029305943311029474,
          0.0142950014896672,
          -0.008005308652354392,
          -0.010777633381177697,
          0.01332988187724001,
          -0.01559765176243603,
          -0.0011031298241983806,
          -0.026947689019557575,
          -0.004349871308438343,
          0.012000775243800037,
          -0.0040290880296855415,
          0.013790121370321278,
          0.035627910719910796,
          -0.028143457434404613,
          -0.0050389639482437765,
          0.0018970981062553462,
          -0.006321426197533472,
          0.0021384441622016924,
          0.012799388119311732,
          0.02339493065992059,
          -0.004677496854158025,
          0.0012279816492719274,
          -0.003179822585792078,
          -0.0005908321123920456,
          0.016517670783026284,
          -0.010523622974565659,
          -0.007519915626440197,
          0.016045904457555014,
          -0.02628602394315612,
          0.0012257300435627838,
          -0.02985470435941921,
          0.01886137736058396,
          -0.003760503863717365,
          -0.0008493102190323188,
          0.005421531057852175,
          -0.006801311018978583,
          -0.005054680802602482,
          0.017715909988415074,
          0.013659094061793057,
          -0.005789716426332629,
          -0.00277600141202649,
          0.006020088676281258,
          0.002076927765134527,
          0.023011139135464587,
          0.0038105604757791085,
          0.001344959958598484,
          -0.010777032283399643,
          -0.017170119516165108,
          0.002563581628624036,
          -0.005638616254686261,
          0.002565733332714305,
          -0.007136705553042413,
          0.010241282075086672,
          -0.009785710686510369,
          -0.006157509498712222,
          0.002027171760553346,
          -0.015076133877442603,
          0.004514629202960264,
          0.0014097872685935678,
          -0.025058500748100693,
          0.00015344544783191466,
          0.009219311139594868,
          0.009971438816064881,
          -0.000010421792882217497,
          0.016366392232061357,
          0.025743917887074013,
          -0.03446937576196773,
          -0.007692837762263316,
          0.009268784206027275,
          0.0034107127123468683,
          0.020090622450420093,
          0.0036256999875197856,
          -0.00707936187963833,
          -0.006813100650305883,
          -0.013923843077241163,
          -0.015642970282931715,
          0.013041767832248623,
          -0.03447659190988029,
          0.015497654486478664,
          -0.01153519320987528,
          0.0069265959496830586,
          -0.02443701789711978,
          -0.002279744633815033,
          0.017904131032779495,
          -0.022357564004751772,
          -0.008274456543349263,
          -0.023704804709714675,
          0.00042789860885633467,
          0.016419703601513666,
          0.0006822355499256588,
          0.016839345903709,
          -0.0033153010302463424,
          -0.0095518581652018,
          -0.012257961052812879,
          -0.011349712217774187,
          0.0032196190278202226,
          0.02640995310574988,
          -0.0008981390443520826,
          0.0043687041335954075,
          0.037922099605568374,
          0.007255547501158947,
          -0.03216710243285352,
          -0.0011404581431887922,
          0.016408523692204035,
          0.015108167867478173,
          -0.0047620011179328745,
          0.011087267344501023,
          0.002535827052381041,
          0.006064528462225496,
          0.0032414122499946096,
          0.0019916568094283734,
          -0.003981504582543093,
          0.016410533650927903,
          -0.01737909537330488,
          -0.0036013335064108334,
          0.003255966648663012,
          -0.01138902017500963,
          0.014121826943401883,
          0.008810616131507545,
          -0.005476463066149945,
          0.006106188353574912,
          0.02025356083809908,
          -0.01612063462821328,
          0.0007767541997604973,
          0.002307884901012975,
          0.005512204691127753,
          0.0033656649118522057,
          0.0020551147185613318,
          -0.030728577803139073,
          0.0035042779479915343,
          -0.004249665635006938,
          0.01631741238368037,
          0.0093600789172244,
          0.006102804245151048,
          -0.006452320429926069,
          -0.0034971131998623173,
          0.00513939618740147,
          0.015121581784454793,
          -0.006667718533268124,
          -0.006146409700769595,
          -0.022498083435415463,
          -0.0010575405741190388,
          -0.0003735565328342055,
          -0.009081824710164298,
          -0.016253514437550885,
          0.021521490640503533,
          0.005997735622473036,
          -0.018367367081729657,
          -0.0007808134924869929,
          -0.017367438078223378,
          0.005023858526249455,
          -0.013977862653404565,
          0.00012907226232480127,
          0.004196828359228388,
          -0.021221254511144344,
          0.00875949006939123,
          -0.000410170496461226,
          -0.010994488728268437,
          0.008759572087768544,
          -0.02893792173872947,
          0.011490813442594347,
          -0.010986134479390262,
          -0.00430494975505941,
          0.010651785686942522,
          0.0260934071804392,
          0.012973655294233347,
          -0.028969374288083893,
          -0.018754099962254335,
          0.007376460819533051,
          0.007884634842755908,
          0.01086048464086981,
          0.00637147308105514,
          0.008320789882452809,
          -0.01480677821231429,
          -0.011982347404528923,
          -0.010724318050332478,
          0.00031571199266767873,
          -0.025043667549392155,
          0.019426787527784,
          -0.0038212403650280274,
          0.008826125042281186,
          -0.008257508222970535,
          0.010641326610352808,
          0.013434007450441229,
          -0.004363623893586085,
          -0.011394219189951597,
          0.008086831373294617,
          0.014557371236752433,
          0.023938092468373307,
          -0.010422574626266182,
          0.013626456657658267,
          0.009063433957535911,
          -0.030682953953528703,
          0.002972614063279345,
          -0.02294733675569802,
          0.004197400894590809,
          0.007110181080425217,
          -0.012047124622015999,
          -0.015537381716926717,
          0.04292529243433643,
          0.0022967047454731074,
          -0.011525643703830695,
          -0.000289313335801237,
          0.009982422363987421,
          0.01179538005682097,
          -0.009698478759509107,
          -0.01062235549500971,
          0.011520920520631805,
          -0.023500472699467846,
          0.010294107903532936,
          -0.00961482561529912,
          0.011065342908344416,
          0.0030717567184322227,
          0.010737726449786952,
          -0.005272839913884258,
          -0.00769159064747069,
          -0.006531827387195457,
          -0.0045475172266932215,
          -0.01676556054446985,
          -0.013011357955388913,
          -0.0050511012274332264,
          0.002190230350599399,
          -0.00739578744338875,
          0.0035824604669188434,
          0.023003603943564172,
          0.005333161894449628,
          0.002634138359820975,
          -0.0030053792257325436,
          -0.042748584840868686,
          0.0022240910635677787,
          -0.0015350863743585662,
          0.016043018640207272,
          0.023749645024021264,
          0.0030847788929276843,
          0.007685441316433294,
          0.0019137093559676822,
          0.0167289803027317,
          -0.03415648672333181,
          -0.035042045633825264,
          -0.012129487195883469,
          -0.016976743788451366,
          -0.028612289555545893,
          0.006556589761657728,
          -0.004897779804384616,
          -0.017593549085649748,
          0.007615894939240712,
          0.023300770228071838,
          -0.00642661653838167,
          -0.006920757211957858,
          -0.006318188513635255,
          0.0020610015397832726,
          -0.0047725490159605055,
          0.009003857926029852,
          -0.010960804339331566,
          -0.0002385959255637491,
          0.030243345481106743,
          0.002388039888518652,
          -0.005117220056756276,
          -0.0037393214508854113,
          -0.02202232620538543,
          0.01103410685886683,
          -0.000831056185223458,
          -0.020836514326043797,
          -0.006585605336991439,
          0.028939796529340943,
          -0.001985093308178675,
          -0.014257252760514833,
          -0.010816103741365608,
          -0.0012697883995280465,
          0.012428068895475144,
          0.015891354775786407,
          0.0009531989830513102,
          -0.005741356632609403,
          -0.0013619613715543323,
          0.00010756354247599567,
          0.005235188492621661,
          -0.0025633496256708094,
          -0.00006916007691180175,
          0.0027928813763059505,
          -0.001310695148217028,
          -0.019785449294327094,
          0.014619654267970952,
          -0.002922557802215818,
          0.02293890115662663,
          0.017448595749132108,
          -0.0031731324695128036,
          0.03674228609505501,
          0.006195958963883885,
          -0.0015944481514767487,
          0.00092237120057143,
          -0.011211914955590225,
          0.002535405889694946,
          -0.04191876566724286,
          -0.0005679479964022426,
          -0.020160096776353168,
          0.021297215388417706,
          0.011544729343975563,
          -0.008595204559238965,
          -0.017641506976834243,
          0.008024752832594883,
          0.007457187995232012,
          0.01001007879372103,
          -0.01712906840928545,
          0.011568802451500099,
          0.0188936892106074,
          -0.0005515394073367959,
          -0.009643548284980989,
          0.028880115580221705,
          -0.02313005746023779,
          -0.0087504132343667,
          0.012947752701015223,
          -0.003954612574090518,
          0.008783449007278883,
          0.007946978398573298,
          0.0071118203337644965,
          0.02157306579820459,
          -0.0028285057322868863,
          0.04839162426940094,
          -0.0011438450085889604,
          -0.004614973632175329,
          -0.012965466126853372,
          0.00047024455607353366,
          -0.007245847414780216,
          0.0031262554796272564,
          0.0024424614686738774,
          -0.018404122535407533,
          -0.02051713486832019,
          -0.0029731006838096593,
          -0.02591495089546667,
          -0.0028244040505960846,
          0.0015198250921512663,
          0.01952144497851787,
          0.009398585650037662,
          0.005392271303800916,
          0.009277328886007592,
          -0.0006329226466796647,
          0.01857046107158091,
          -0.011595616321510701,
          -0.006830981031341763,
          -0.017268668352237355,
          -0.022290408120602314,
          -0.007964921009335246,
          0.0007104116403070215,
          -0.008794597984235819,
          -0.00983587419590301,
          0.008481972085101815,
          0.0180576873819739,
          0.005060702293908498,
          -0.009090780235772877,
          0.012715257016698683,
          0.011669046342022593,
          -0.0032913991370468573,
          -0.008482260926032804,
          0.016142432985771945,
          0.02160759402973802,
          -0.0037635099783099677,
          0.005426669646415572,
          -0.002762981100826273,
          0.006337081109039796,
          -0.027950377375828703,
          0.004065980445112335,
          -0.008086649318980978,
          -0.016288463502527765,
          -0.013827847486943922,
          0.01578182643358287,
          0.01673502204668402,
          0.0017113713231691075,
          -0.012420347520909586,
          0.004422053685210264,
          0.0018042758625835022,
          -0.0007321792450201472,
          -0.015565391499990514,
          -0.006319502699731417,
          -0.007863523210048209,
          -0.01952114126814173,
          -0.01102620083099933,
          -0.012720600289839975,
          -0.0007654558808176715,
          -0.012260141521607917,
          0.014863068564881043,
          -0.0074771965332830976,
          -0.009450796060939069,
          0.000920001643789733,
          0.009988585572892124,
          0.026884099116472066,
          -0.02100661563715559,
          0.02924066530747519,
          0.01330504267550108,
          0.004364150762165093,
          -0.013414659737637431,
          0.010492283639917376,
          -0.013118106567231003,
          -0.011797319159437053,
          0.0075817206536296184,
          0.008205855340820143,
          0.03378363168233189,
          0.012470307645751416,
          -0.0013315151179854002,
          -0.0006616861725559374,
          -0.007587791426119796,
          -0.010297440281824524,
          -0.010071573634736621,
          -0.020592373926747176,
          -0.0118547116348807,
          0.007246494457993402,
          -0.028731606765150415,
          -0.013696551044275881,
          0.0062043075762541556,
          -0.004105310755442016,
          -0.007580583297677145,
          -0.013304646538843534,
          -0.017370317753955502,
          -0.002589410554359863,
          0.01012699728665971,
          -0.014210580936003758,
          0.030394546301367013,
          0.00490475839305088,
          0.04436947332294323,
          -0.002683681770295641,
          -0.009602930282202741,
          -0.01515359096954594,
          -0.01091596557048847,
          0.005304816739377677,
          -0.0005859497949967856,
          -0.005795454242584954,
          -0.006522164162272828,
          -0.0014916309497504388,
          0.006847912362990686,
          -0.013238006024523857,
          0.009344512749943069,
          0.024833818166643838,
          -0.010948012916823286,
          0.013232385283147853,
          -0.00852814342816729,
          0.012915454946471065,
          -0.023417889978214892,
          0.02163379280136084,
          -0.012754979077182524,
          0.012060152980269866,
          -0.014624401822020421,
          -0.03381909150054203,
          0.010576499870945964,
          0.00907003940832036,
          -0.025559216137163335,
          -0.02970972773249701,
          -0.0024409484087744735,
          0.017209436538590306,
          -0.0011423877656911575,
          0.003203790850584674,
          0.02315040650985661,
          0.03450999506569455,
          0.018599115710173933,
          -0.008126406222815397,
          0.03145629393513941,
          0.014780262335441014,
          -0.02674603207011097,
          0.02371294099232259,
          -0.001149338902423482,
          0.015418052052838966,
          -0.027067965648136683,
          -0.016491175572642708,
          -0.01926258973938235,
          -0.0009041074971228053,
          -0.0009001524592960757,
          0.005672839646845102,
          0.0073347009597231555,
          0.010237561596306512,
          -0.006724385313968596,
          0.005757603468834069,
          -0.0025756450847268593,
          0.03147008060485119,
          -0.030844273018057672,
          -0.0019347547735363438,
          0.0008068079949905188,
          -0.01604920595138921,
          -0.00009484886490463223,
          -0.013483588813025813,
          -0.003427535701597543,
          -0.01805899480003299,
          0.003930946982465883,
          -0.005606379746728901,
          0.0020879029285407994,
          -0.00045727241064539155,
          -0.00633161504591902,
          0.03062071652673465,
          -0.019434839434883746,
          0.015349406152002042,
          0.013128667365461087,
          -0.015830079021017573,
          -0.005914146505254758,
          0.0057477984585463365,
          0.004161266542503125,
          0.03711388190131096,
          0.00033210578813125006,
          0.008534687147752218,
          0.03727905592733661,
          -0.013457338483666044,
          0.0153840884035055,
          0.016930473548037075,
          0.003858812345727092,
          -0.01203548062451271,
          -0.003013817913841803,
          -0.02308758173830912,
          -0.009916681218418506,
          -0.010823920431580128,
          -0.019980109291076253,
          -0.016234452361083767,
          0.001938781713243349,
          -0.006937171948292685,
          0.009664376129874901,
          -0.03531256727746177,
          0.02006303361589491,
          -0.007158894043427093,
          0.017277748532718098,
          0.029933888920841412,
          0.005909520939173246,
          0.0029756949619103574,
          0.03036886616905163,
          -0.0077191184783009514,
          -0.006950176520540185,
          -0.040907886358259364,
          -0.03260645392705092,
          0.010718578247646056,
          0.0004127893372748032,
          -0.02433009516480198,
          -0.011448661710974323,
          0.011817250811933026,
          -0.01723340444222902,
          -0.0013124387084612783,
          0.010614776848317456,
          0.014975705912320576,
          -0.01554997641142562,
          0.017710969396444072,
          -0.026869637808238367,
          0.005497953628124823,
          -0.031036311579023656,
          0.003375143143374496,
          -0.011354981479035598,
          -0.0005049580853864331,
          -0.01018644244535142,
          -0.02075109398465212,
          0.006789771600523974,
          -0.003587990708849054,
          -0.017730355625885832,
          0.0032924275412173614,
          -0.02582001746902271,
          -0.01144104023325144,
          0.005629679784433069,
          0.0017732731050607482,
          0.01907257448781552,
          0.012662407611556582,
          -0.0005898477913678213,
          -0.0208085987151306,
          0.026501000065945562,
          -0.0049061435731546175,
          -0.01817130172473328,
          0.021762373447057386,
          0.0007841297455178295,
          0.006822641048990973,
          -0.01065969556894482,
          -0.0004423850632147935,
          -0.0328558562103037,
          -0.011278244534342008,
          -0.04348954769685423,
          0.014751618101426,
          -0.0071230985981502555,
          0.015850096228354062,
          -0.0011343783490192505,
          0.011255284302017037,
          -0.014854256140442503,
          0.013414165781163737,
          0.020110576905603625,
          -0.022654515433363713,
          0.007192625898028792,
          -0.0018016401337464017,
          0.006960609267921365,
          -0.009246029695237792,
          0.012100760165890366,
          -0.03122146065515854,
          0.006989614227753185,
          -0.023800026441838873,
          -0.004385476833811295,
          -0.008022003842055793,
          -0.006469507100293054,
          0.011526723689573845,
          -0.009051404278417705,
          0.004333445685415046,
          -0.001113723187659068,
          -0.01373494727483012,
          0.011881252594158722,
          -0.008294890379991156,
          0.029830603634314647,
          0.04523016255416466,
          -0.10306158249477002,
          -0.0006397885259329587,
          -0.10144785565695293,
          0.0019145564361137896,
          -0.15332618672451265,
          0.024031351380823282,
          0.0406261841277856,
          -0.0023006883537764387,
          -0.10646400540213877,
          0.1478037234005529,
          -0.07448451093585869,
          0.015905434148514055,
          0.04318249531186332,
          -0.12245784717747635,
          -0.11166117145526164,
          0.10538592432943863,
          -0.021018983609900472,
          0.08302862057768322,
          -0.02106732080323454,
          0.19056123085705626,
          -0.028376935898601262,
          -0.04694286607302079,
          -0.1201483700579522,
          0.10239784106718891,
          0.09291134901548638,
          -0.07733118466241498,
          -0.1239893016758847,
          0.03873675226726605,
          -0.015549488930919219,
          -0.1436573247999562,
          0.08207557208802328,
          -0.00264582476181565,
          -0.1030296722874099,
          0.17193397333402793,
          -0.03773422838586916,
          0.07963815859033166,
          0.025626849428806307,
          0.01813583121724457,
          -0.01361622057785141,
          -0.02030039113852011,
          0.033557290311798174,
          0.05086871025302616,
          0.11879690359242327,
          0.01470215900971923,
          -0.046723494535736196,
          0.06244786706710679,
          0.11677620956502073,
          -0.032343935635083594,
          -0.04815597651075593,
          -0.04520901025265011,
          0.0021630652335370535,
          0.05239608704348337,
          0.042484838424047544,
          0.06415106620640193,
          -0.010482633613754825,
          0.03181948341741203,
          -0.01780900170187827,
          0.01666357663249619,
          -0.03484024273969851,
          -0.08393256754582268,
          0.09519359474398574,
          -0.012994448362688314,
          -0.08951729125010822,
          0.041178863301264614,
          -0.04841738992537218,
          -0.059349431833735526,
          -0.061896196089519726,
          -0.031297481409695495,
          0.001338188213598292,
          0.045367239993062525,
          0.026642382293359787,
          -0.07764197947694126,
          -0.0008209936357496495,
          0.03944551742163123,
          0.033255464569532794,
          0.10907127490489077,
          -0.03864667990017887,
          0.14609768662752612,
          -1.1404498903508134e-6,
          0.04890925785590714,
          0.009749430012040235,
          0.025191367728374135,
          0.007728702897083532,
          0.11445658102120851,
          0.016120662839516145,
          -0.15148354083479532,
          -0.12351096067722461,
          -0.0014264852546259964,
          0.02323558262676875,
          0.03239997611711323,
          -0.014084200075424774,
          0.16544612643978315,
          0.018399112450849252,
          -0.06381908757055924,
          -0.17397869834336527,
          0.04747740458949762,
          -0.12409505505759932,
          -0.11084397345157435,
          -0.10381128657188604,
          0.07376368030196137,
          0.03445438021208716,
          -0.11175438897966147,
          -0.06394879665568262,
          0.011204260842198674,
          -0.09112076674874309,
          0.03522176014667113,
          -0.02428026169320966,
          0.003590573684460487,
          -0.016677926023554952,
          0.13264795721186,
          0.03086452375998184,
          0.006995847374316448,
          0.002843003136977774,
          -0.08025904660496071,
          -0.06907653980846906,
          0.0196357826736453,
          -0.04857886597711492,
          0.04382639488621826,
          -0.14380444748388757,
          0.11960820644061934,
          -0.08269800790199873,
          -0.10518131514215907,
          0.01017114760227516,
          -0.008648050734367632,
          0.12571634440754864,
          -0.11306258773457697,
          -0.05282554467621729,
          0.02497604336063888,
          0.08869856295338979,
          -0.04400103762197197,
          -0.04200537636988403,
          0.04497756444330414,
          -0.07162954838188901,
          0.0329649541154624,
          -0.027283194223205763,
          0.033740421178708235,
          0.08226061330870613,
          0.11086688647236416,
          0.117870350910556,
          -0.08592229000692786,
          0.0390438598360888,
          0.06522165883736726,
          0.10916865446831658,
          0.06899707257873794,
          0.016427853569808783,
          -0.10456585785346019,
          -0.015578062704348852,
          0.037749681703201705,
          -0.09336302093120034,
          0.0363723340659705,
          -0.090364695368943,
          0.022789278725314485,
          -0.04263132578529124,
          0.0882734115876531,
          0.004902336764016786,
          0.11881956908914357,
          -0.038235947594265726,
          0.06829633057377589,
          -0.010438515706817902,
          -0.19227910524346184,
          0.012508017979685945,
          -0.027754760202209114,
          -0.06921491915808121,
          -0.06966748641576495,
          0.08738251886356017,
          -0.12845124722586584,
          -0.08280887123691934,
          0.00928588204909207,
          -0.09519940492619892,
          0.08308566409653208,
          0.044488318050095045,
          -0.15082859700717716,
          0.07694037152028747,
          0.10290112640457016,
          0.06878762782906275,
          0.18011038713619948,
          0.023884138699025698,
          0.14707888112938589,
          0.06915942034052443,
          0.07523635228886832,
          -0.14031056474170125,
          -0.05061094192996754,
          -0.05892898188567212,
          0.040086553494135806,
          0.008143757447882882,
          -0.1264752681606982,
          -0.054956161357828104,
          -0.08799171314971817,
          -0.014219748439674619,
          0.09157465169734014,
          -0.08556192240643248,
          0.15173629270124733,
          0.03831365569295171,
          -0.04354857368628327,
          0.009195959740588833,
          0.15415058526256295,
          -0.000537346794278865,
          -0.15209015280058533,
          -0.045330822759017765,
          -0.011419832806341667,
          -0.017468794009137544,
          -0.0524486772018176,
          0.031900230494167264,
          -0.05320094346058936,
          -0.05199210234804224,
          -0.009204268549152385,
          0.0067437983615182915,
          0.15360143102306809,
          -0.02959374630101781,
          0.13848685654937345,
          -0.061184842064221874,
          0.027616480065313715,
          0.05206213750669217,
          0.09774327424415132,
          0.0702109375175299,
          0.046610822699145966,
          -0.016475354341749748,
          0.00584439589037531,
          -0.032458561157190764,
          0.17305525740033398,
          0.07192268726564956,
          -0.03114198528788726,
          0.18088829784780436,
          -0.1750792778827186,
          0.027964282111389557,
          0.0070489429317807505,
          -0.09360570059683722,
          0.031238878146396993,
          0.08128132119031858,
          0.030530239265953253,
          -0.04579847938671901,
          0.12244612175270721,
          -0.0001933299761630809,
          -0.08547783448783489,
          -0.08296409039578583,
          -0.014119171411483401,
          -0.07126358938940891,
          -0.016027910699039936,
          0.13278839861146866,
          -0.0860965441533631,
          -0.07274989105472376,
          0.02412561700548712,
          -0.10615047832988356,
          0.04162738593331453,
          -0.11111776459537867,
          -0.11708072187698976,
          0.05402613090247516,
          -0.08756498680954605,
          0.11064052158587943,
          0.012789141118054894,
          -0.07634464231798271,
          -0.0026510442794149256,
          -0.03977177039906882,
          -0.09445613774573035,
          0.11936945208345856,
          0.02148426290586329,
          -0.02879166386044503,
          0.11663664644440427,
          -0.019916771752557606,
          -0.18280359298957854,
          0.02055177370347352,
          0.02249468045584286,
          -0.014512970036870411,
          -0.09471607992977578,
          0.0030920157522818415,
          -0.04931654203056219,
          -0.12260564767069804,
          -0.0029823183515094677,
          -0.07498725231508767,
          0.11565037452467972,
          0.06710945098590923,
          -0.21553210682648494,
          0.09034680536669742,
          -0.03773410387293892,
          0.1494175258100095,
          0.06473861528815267,
          0.007036617875626256,
          0.01768367171203844,
          -0.00525167086530423,
          0.02677231945562694,
          -0.14760172745381275,
          -0.0671246736717668,
          0.024487898560075272,
          0.15215803218023766,
          -0.023076658795461884,
          -0.05172449562756342,
          -0.07762832334712966,
          -0.1479265174431141,
          -0.0665355367980557,
          0.033223098503857254,
          -0.13318625667277229,
          0.056443639139002216,
          -0.048150165874446274,
          -0.11626862343152125,
          0.06928705916376682,
          -0.008473654707191376,
          0.12359135170663718,
          -0.18087076622156756,
          -0.14068288685376204,
          0.031178669746832192,
          -0.043959153982714536,
          -0.04655617799520457,
          -0.08496756987519172,
          0.04858535592330323,
          0.006575328369184983,
          0.008121275078774678,
          -0.011213882704198954,
          0.06653639754903597,
          -0.08531452044820849,
          0.16678947256201257,
          -0.10325189837814593,
          -0.00866691580666832,
          0.20987319180283281,
          0.07887991768357566,
          0.052378554655722165,
          -0.0006004071335524291,
          0.03834528736673159,
          -0.0494420165985228,
          -0.011024117398287602,
          0.13410226592477045,
          -0.09321922620873933,
          -0.11202387590757204,
          0.22633836940610366,
          -0.17027959656540384,
          0.07387393563473194,
          0.10882436962908,
          0.001298881064534615,
          0.05459011520184889,
          0.023745381145159353,
          -0.0039069011088141235,
          0.10182507384591699,
          0.03987296178723219,
          -0.042229594816330325,
          -0.16539301919993263,
          -0.06119439622960393,
          0.12258480705119487,
          0.07616254059334046,
          -0.04926701825648223,
          0.044010471719128454,
          -0.1851565563343223,
          -0.018407624132188462,
          -0.03355305891195547,
          -0.0426209308877135,
          0.019568405187801723,
          -0.1006772205722216,
          0.007419401822056631,
          -0.1376417688809962,
          -0.08512515374491247,
          0.16065638946071267,
          -0.06533464733863749,
          -0.09940133660803765,
          -0.06441793636163624,
          -0.08198417628146247,
          -0.07393674132517503,
          0.1493593559231725,
          0.15043362698431584,
          -0.040475217551378756,
          0.10146601300466494,
          -0.06807593690169661,
          -0.12436404764071289,
          -0.011783846707922081,
          -0.1392636361107253,
          0.06882211118222752,
          -0.05548782651962374,
          -0.02830331533860164,
          0.014364456078204859,
          0.03008962815078422,
          -0.014936807724813124,
          0.006525806980149297,
          0.1049933782250391,
          0.007985827581699512,
          -0.013344145810993387,
          0.054990881764340374,
          0.03014164916381799,
          0.23692753836998873,
          0.14726774350607963,
          -0.06952449048920946,
          -0.01775499458198189,
          0.03662056413163302,
          -0.012180824433956064,
          -0.060117788866163854,
          -0.04776901259524298,
          -0.04523772154858738,
          0.11807457874657709,
          0.007085091252183269,
          -0.05484317710448711,
          -0.06738916613031228,
          -0.15924545328975387,
          -0.10461097301212607,
          0.06945539945853797,
          -0.09170542882542661,
          0.01014173045655093,
          -0.07775748736780787,
          -0.14434417568292904,
          -0.04589412785154722,
          -0.057784312021871426,
          0.06676839797051305,
          -0.25402751707469073,
          0.06955833230708745,
          0.09841061328107421,
          -0.06406582665882384,
          0.07493533916538032,
          0.0832680189409547,
          0.2131993687881988,
          -0.0757531845620872,
          -0.03377864759191357,
          -0.07045027109984074,
          0.16056278905814192,
          -0.16963534668935398,
          0.10200462712128593,
          -0.06323747751943883,
          0.06635809351446809,
          0.2039430229373826,
          0.04368519344995773,
          -0.024492646602566344,
          0.15196118266834088,
          0.14840355662185223,
          -0.06104471436674746,
          -0.10917078894892265,
          0.16312378590665427,
          -0.06135506423871512,
          -0.13457958635257788,
          0.47286520081148276,
          -0.32598575993540985,
          -0.04282681797812313,
          0.09396343834614002,
          -0.08157526539998397,
          0.13298816620083517,
          -0.01796385251772973,
          0.005498458116766476,
          0.050573223026181134,
          0.11581549193545983,
          -0.06898447006731505,
          -0.040268925822508746,
          0.038662050591980184,
          0.15370584717786195,
          0.10107512069501967,
          -0.11944469786937126,
          -0.0946583279319887,
          -0.1652916753756503,
          -0.008753858327424853,
          -0.13489632187336578,
          -0.010514676111653243,
          -0.0008784998285890562,
          -0.12367852785164507,
          0.04596084171476167,
          -0.07309883603970369,
          -0.03460580794410734,
          0.08593802153484585,
          -0.07993501844133974,
          0.05121006980014434,
          0.1789665202785628,
          -0.02444607247860491,
          0.014471981556814187,
          0.15984252459452525,
          -0.034634429760828464,
          -0.07291127733905639,
          0.07904063807561115,
          -0.055606071719652185,
          -0.09138346723688653,
          -0.10027971307431921,
          -0.12597905099959203,
          0.1313335768861189,
          0.013756880765401438,
          -0.030056869847374476,
          -0.035472009213952056,
          -0.2203810031754378,
          0.03423727355218504,
          0.05761006895290498,
          0.046381648657747396,
          -0.14893098200789825,
          -0.0037123223810997903,
          0.023405113065537046,
          -0.015996477187623363,
          0.12187760232746404,
          0.12555614690101055,
          0.022579117666983287,
          0.17596234334064303,
          0.0428556483849659,
          -0.062240685484979894,
          -0.1324338021971625,
          0.002641514170385471,
          0.03712356187741525,
          0.005763521806614305,
          -0.08675963618970227,
          0.010115185927428843,
          -0.038688188416735436,
          -0.04510462941402941,
          -0.10168851360568493,
          0.08382236392694534,
          -0.10474941848230582,
          0.09608997595013258,
          -0.1480326797677007,
          -0.1972292707002261,
          0.09967433534489217,
          0.005048667087318079,
          0.12906799139927524,
          -0.2577813035860018,
          0.06875117850690106,
          -0.06218739110264439,
          0.023710783427332637,
          0.2253465379066029,
          -0.02083491127293305,
          -0.009222423970347308,
          -0.20546516123411443,
          -0.04732291567998081,
          -0.08496603590217178,
          0.06183896377168643,
          0.11823421157029677,
          0.11204816148624974,
          0.009186030403123362,
          0.17777087929929125,
          0.0795569321639194,
          0.18716680147777898,
          0.02549018448443207,
          0.20399429500299546,
          -0.018334091634193136,
          -0.1459012812157509,
          -0.011815683412521514,
          0.04734511528810052,
          -0.22129324465141356,
          -0.11653693825942608,
          0.40885983123883163,
          -0.22412446358982566,
          -0.21984294482215294,
          0.03701686912815562,
          -0.0197509171479531,
          0.15593682708418657,
          0.10970809737674482,
          0.008251911247156523,
          0.08800221781495163,
          0.07957276054998376,
          0.17169468300875282,
          0.030012191037416355,
          0.09402485672010351,
          -0.07184880501707176,
          0.07301408145925266,
          -0.017501659165754545,
          -0.07402680655352893,
          -0.28858360742274547,
          0.04175939197913257,
          0.09185063181688854,
          -0.062184197986816805,
          -0.020420245946979904,
          0.008652099031558311,
          0.07823254042441975,
          0.1930841966185708,
          -0.03362435134126206,
          0.1265550532557716,
          -0.11780407531260408,
          0.08775202966772647,
          0.05511968836100945,
          0.00537906858384763,
          -0.1523140493657337,
          0.14499328385954158,
          -0.05007461918845676,
          -0.04035800816247536,
          -0.06973324581038506,
          -0.19553481466542397,
          -0.04129742350280454,
          -0.0532782340134036,
          -0.11203319432248363,
          0.04386184030571077,
          -0.01718907453456815,
          -0.06401230992245598,
          -0.09825796342466128,
          -0.22108448057148386,
          0.08141085034523456,
          0.20158969804912039,
          -0.03312597682349634,
          -0.08373679467327781,
          0.10295931255192103,
          -0.06298225788718054,
          0.050462977092093034,
          0.003335616286693203,
          0.07087317627717667,
          0.057739271487630396,
          0.24396463453107764,
          -0.00808835200277977,
          0.07256177847318913,
          -0.023984157349339803,
          -0.01353197112140827,
          0.010355359876442274,
          0.023794136871781096,
          0.02016193042346753,
          0.05386869300045515,
          -0.08412594575275156,
          -0.0020772915490175673,
          -0.01939874375812101,
          -0.04053055538860717,
          -0.03767296629954126,
          -0.0946032146987505,
          -0.16164218685507992,
          -0.18144958779434078,
          0.1338428722955163,
          -0.05800200072589852,
          0.012823134871701851,
          -0.19106293742937167,
          0.1510927384999599,
          -0.05299953128663189,
          0.07568129694759297,
          0.19006185163835454,
          -0.10992776843875247,
          -0.07976323746594285,
          -0.29862371320717096,
          -0.056001994275197836,
          0.0020286214563507193,
          0.18258178756247445,
          0.1312868869626911,
          0.09014551251728511,
          -0.07747392835553821,
          0.31117933286403376,
          0.04286719759133737,
          0.2254118665910577,
          -0.047927132774045006,
          -0.018746020401251128,
          -0.13764824968544903,
          -0.08949161975104802,
          -0.10128844060345474,
          0.022251298216207305,
          -0.060364545010592824,
          0.04855953986909229,
          0.21134203824055567,
          -0.005317353953983249,
          -0.2224577528692083,
          -0.04318120472715803,
          -0.08034196052209336,
          0.07743851661094042,
          -0.004833919409903209,
          0.11009516167992833,
          0.022583597595821635,
          -0.10562119350773326,
          0.11682150775928071,
          0.02626752578711837,
          0.02041400133313589,
          -0.05372583956973525,
          -0.021548511414370017,
          -0.09730759927026678,
          -0.058019191013181586,
          0.07810845255294478,
          -0.06626299953769937,
          -0.04352502530908571,
          -0.05763113726338552,
          -0.048958764869059646,
          0.07179000761844835,
          -0.08868659105505297,
          0.1337615532079426,
          0.07042245131499726,
          -0.06832016695845702,
          -0.09320367532049334,
          -0.023986019813455592,
          -0.10328912333070416,
          -0.10668624718433684,
          0.11096267649848486,
          0.09722257111867492,
          -0.03628541131506048,
          -0.056167213693224284,
          -0.07116093693498815,
          -0.1147336863008196,
          0.018540716232358517,
          -0.0910205094375063,
          -0.12435890629026301,
          -0.05002903865187017,
          -0.05945201928592818,
          -0.05226079704995946,
          0.03601025739610239,
          -0.10843874028333934,
          0.07240009531318395,
          0.12216956041910358,
          0.003991841379173322,
          0.021094352984086736,
          0.03698748970955486,
          0.12512718649457488,
          0.11903949774980387,
          -0.10094204524372578,
          0.12027304025235189,
          -0.1179880981942757,
          0.0983400760967705,
          0.06397322864259286,
          -0.0011870261841435547,
          0.05261738301495028,
          -0.052312965646992005,
          -0.07973813413799141,
          0.023352195650922555,
          -0.1395348874629569,
          0.022245904726832147,
          0.010811476464967688,
          0.028406876518973397,
          0.001349726408153378,
          0.07665205772654765,
          -0.08739916110498057,
          0.050883559644902016,
          -0.13309395976228813,
          -0.1517368371288691,
          -0.043020434387176815,
          -0.07920247958990738,
          -0.14529613828369178,
          -0.014792269444265564,
          -0.03853634590148428,
          0.04909352172372706,
          0.034637505932092666,
          0.01642582162008889,
          0.02946957751634403,
          -0.1060813705876172,
          -0.11091452725346972,
          -0.00361776791700557,
          -0.05681412666268681,
          -0.003578387440977268,
          0.017598334082143067,
          -0.08990471740236729,
          -0.044881330833884445,
          0.17447467769542443,
          0.07209167929793192,
          0.1383428679216801,
          0.045498791188078126,
          0.0007239275866792499,
          0.050212022140161086,
          -0.04301074772930643,
          -0.1978502456782073,
          -0.01824252081902458,
          -0.11772375737967958,
          0.08018242855643044,
          0.06562215971998725,
          0.2136886066203578,
          -0.11402511362859509,
          0.0729117050498098,
          -0.03157462792040797,
          0.1403767603261641,
          -0.04496806752870763,
          -0.013556679667935804,
          0.08168308438035612,
          -0.07476275945264108,
          0.2532603536292998,
          -0.07056649860670472,
          -0.03043843837869304,
          -0.030975094005353556,
          0.043101920912631736,
          -0.02132602665652498,
          -0.033776730138515884,
          0.09997742715249276,
          -0.0647730090253322,
          0.04868041643281268,
          0.1550281792786458,
          0.06797838259275332,
          0.02963147440253679,
          -0.0857010891810858,
          0.16217743338506954,
          0.041679510338949684,
          -0.05442358814374881,
          -0.030854829517247117,
          0.030901219427692563,
          0.07701169931104491,
          -0.1357168039861581,
          0.0057228682039442156,
          0.11689468310672069,
          0.000447537141809573,
          0.003071287385903895,
          0.015722781823285084,
          0.013842333385143133,
          0.06248142702275833,
          -0.021087653339576688,
          0.0719622448173358,
          0.024766081271636122,
          -0.12576822089937922,
          -0.14261289767326688,
          0.014565467513541715,
          -0.016866473752942063,
          0.002931512787914421,
          0.06914570796206641,
          -0.1257539069908804,
          -0.10722947106009266,
          0.20176648943235878,
          -0.008275314502144835,
          -0.08969208567308164,
          0.03634012028681211,
          0.10521897936928762,
          -0.14802075106110948,
          0.14356226990706028,
          -0.021842089371665502,
          0.12057625387817113,
          0.0070059167625360335,
          -0.06023291819845057,
          -0.010509288668505952,
          0.02236836011921731,
          0.010882659357433254,
          0.007251421148825824,
          -0.00847609025071648,
          -0.0013234565387767966,
          0.007392503910747328,
          -0.016293254802545332,
          -0.004821362949168701,
          0.013950326290626359,
          0.0054449699901341275,
          -0.03901684465758566,
          0.008520410294617184,
          0.03557746757376114,
          -0.006625994106651861,
          0.0018949821097117116,
          0.0052068835094616255,
          0.02685467088113845,
          -0.03473142538399773,
          -0.013152098109162796,
          -0.023610865186716734,
          0.02630517622016548,
          0.0032740537875031654,
          0.03136717941765907,
          -0.006677853048323494,
          0.007667503782613177,
          -0.002476743148489997,
          0.01901393357759781,
          -0.01220661698793508,
          -0.008842889631016263,
          0.001256819307846163,
          -0.018691552774957862,
          -0.002865087482568285,
          -0.0022855524990576036,
          -0.03118080419728161,
          0.016056898713509515,
          -5.810801484729763e-6,
          -0.014431517941637778,
          0.002033739426224427,
          -0.004386693129026075,
          0.02544498379304218,
          -0.020925840290437425,
          -0.001362999441021459,
          -0.006216403208395687,
          0.018820986357846934,
          -0.014101570861818137,
          -0.007041284809923439,
          -0.0023511555549546427,
          -0.0014337615362816196,
          -0.02031054766863811,
          0.011616766872209744,
          -0.0009278226488824385,
          -0.015680686558546608,
          0.0024958336381955687,
          0.034087069119751116,
          -0.0002385304655260054,
          -0.010623101827164878,
          0.0063372412210382905,
          0.0212715902773769,
          -0.006820942720448967,
          0.010444964157394387,
          0.0021139113428919483,
          0.01131736392585327,
          0.018171922433628817,
          0.009730473249754897,
          -0.003558062201902123,
          -0.011686885003426947,
          -0.005279304336344402,
          0.000489514970708154,
          -0.018154898910970017,
          0.007995702777178992,
          0.01883082605961336,
          0.0374898374455679,
          -0.0005959062662011861,
          -0.004817727070185716,
          -0.001959887022200118,
          -0.0009743918916645845,
          0.015409296910123178,
          -0.0039174659832948355,
          0.012264482502244725,
          -0.01682428516222544,
          -0.0020273950313240536,
          0.006647510670433628,
          0.019716031856429082,
          0.021403377542511898,
          -0.02264523597710146,
          0.005372982767614191,
          -0.02449234369079856,
          -0.003496136714903373,
          0.024317801365641184,
          0.011973259809492792,
          -0.04497885207432296,
          0.010027800867326532,
          0.00287470779481592,
          0.005981758679825683,
          -0.014078224872163092,
          0.001318632994636717,
          0.010464463265845374,
          -0.010576893576483356,
          -0.004944960800732477,
          0.0004115999973467878,
          0.032489169541833236,
          -0.004452579131147641,
          -0.011750568799754514,
          0.015481003235286131,
          -0.007813419333891168,
          0.019896612567152812,
          0.012776389234391484,
          -0.018047221046085787,
          -0.01048047104775682,
          0.015896204442263,
          -0.01599211130304136,
          0.0043397692817871945,
          0.004960380793280968,
          0.006283233840426306,
          0.0008190924906172949,
          0.004054108808057189,
          0.003401691007025997,
          -0.009687574467421339,
          0.007342859159703021,
          -0.0169890805450844,
          0.016785716171401364,
          0.005937408170529006,
          0.03142839344750844,
          0.012810768176490463,
          0.0005497510293698087,
          -0.012461604924239608,
          0.016043662502541176,
          0.015126802264721781,
          -0.028652006833486093,
          -0.013020680681775696,
          -0.015232458271491094,
          0.0026293291081502324,
          0.00047464043690260803,
          -0.017565461548219967,
          -0.010948855278949475,
          0.007171526786923143,
          -0.018957094423658758,
          -0.01964899362017323,
          0.00366092435525563,
          0.025800141797183953,
          -0.0170247873119133,
          -0.01750586910062774,
          -0.009448582024746688,
          0.015402793060615172,
          -0.008656469406012446,
          -0.018148543446819317,
          -0.002269659041994054,
          -0.0029551800783781065,
          0.012502678477950193,
          0.024536234862336057,
          -0.0064975760341059955,
          -0.014455543967163724,
          0.0036342622393499033,
          -0.002264518583652411,
          -0.007399594600979978,
          0.006684613471321211,
          -0.006688710722677712,
          0.0069872322999120435,
          0.0135772028354259,
          0.00957579684114558,
          0.004611314792409636,
          0.0036847425282504906,
          -0.010440024798559232,
          0.011283079453190141,
          -0.011022050683972693,
          -0.002268329697252523,
          0.001144348429350238,
          0.012012011316738867,
          -0.014170036459661223,
          0.011971613273303969,
          0.011991132191997851,
          0.013078054797784594,
          -0.0052828803881877434,
          0.006454819744298049,
          -0.006895635168966652,
          -0.017423865656154766,
          0.021656253446284877,
          0.008217339797883895,
          0.008591968384531343,
          -0.010697899652601277,
          0.013125022637701926,
          0.0005101851725197062,
          0.0030836998579758714,
          -0.005270675727043183,
          -0.013881953832909242,
          0.008974971575249013,
          -0.007679696754337397,
          0.012697864244573765,
          0.028439362860577955,
          0.009051979373699915,
          -0.05395236036728461,
          -0.0021884411844762084,
          -0.021319458656822887,
          -0.02324389901830044,
          -0.015164657689449393,
          -0.02443008805768017,
          0.008234469173928309,
          0.009517606642646238,
          -0.015244549120342094,
          -0.003908707048890061,
          0.028716289901245924,
          -0.014412909437849909,
          -0.012076344183169859,
          0.0010741062291283665,
          0.003699854500333379,
          0.0031396939578185773,
          -0.004061990080978996,
          -0.015908901888163064,
          -0.011475441202163575,
          0.011425256704302436,
          -0.011733703303646776,
          -0.02982771308883907,
          0.011627700093383023,
          0.019574942181993283,
          -0.006566860925074465,
          -0.00024622611017987303,
          0.010580139593092532,
          0.002190653776879488,
          0.008807196667208432,
          -0.01914259931140026,
          0.029117297674042853,
          -0.0011532958684711677,
          0.008395410376760485,
          0.012861726750516039,
          0.029078365485693498,
          -0.0012334297406311578,
          0.01762022450985477,
          0.002814551036598867,
          -0.023407798320751662,
          -0.009174810624557835,
          0.0036242697020071055,
          0.0017690250562303355,
          -0.0011495740693479213,
          0.0056574619431099425,
          0.0011970449639378163,
          -0.014135324501126333,
          -0.0014307777081127874,
          -0.011924212461324706,
          0.007164034603688298,
          0.022114720474015633,
          0.009973930703976456,
          -0.01839854792543723,
          -0.009562489530468931,
          0.008263769807444296,
          0.010138802138055911,
          -0.020461894366744855,
          0.018266251704148535,
          0.0025277856706627786,
          0.021340765159007357,
          0.019839030562557432,
          0.01112032730092742,
          -0.01823294741881287,
          -0.011800829074453175,
          0.01836242139342905,
          -0.0034488350637539786,
          -0.004738393724068087,
          -0.019453182632979946,
          0.005161175952870987,
          0.015633968353299228,
          0.013785724721703703,
          -0.010470163106797494,
          -0.0008449496463622176,
          -0.013302528880346068,
          0.007170564050346112,
          -0.005267744501526282,
          0.002870435104985581,
          -0.0011862962818457979,
          0.003130841324027828,
          -0.010108043222531914,
          0.010273445991810676,
          0.018894635907051992,
          -0.004734880247523866,
          -0.024306878699623346,
          0.011983748000496817,
          -0.002443211319724453,
          -0.01207349622292742,
          0.005031816283354974,
          0.015411401461322145,
          0.006401882563364176,
          -0.01965849852905005,
          0.005571942779006413,
          0.002302143501728737,
          -0.008034023946821756,
          -0.01265673536810653,
          -0.011058080372760157,
          0.003450073044962771,
          0.011402062933052175,
          0.0013664966530635078,
          0.002362964740273243,
          -0.017318036981287466,
          -0.00874791731307265,
          -0.0037381287575005005,
          -0.008657519529871776,
          -0.027236234435872204,
          -0.01504973738454276,
          -0.009407210326749342,
          0.005440691771074592,
          0.012923435390409856,
          -0.004801021030530651,
          0.006225265298959293,
          -0.0156662618957561,
          -0.019413426943309782,
          0.0002043664839194014,
          -0.0011934283556846571,
          0.01096719038661043,
          -0.0021348602386415325,
          0.007965910641982377,
          -0.02241855980896477,
          -0.008421625687095589,
          0.02273141358092656,
          -0.0074952841463355015,
          -0.024111991033875173,
          0.025297023892814567,
          -0.005360051113078848,
          -0.014976403148785192,
          -0.001118220046611991,
          -0.004945925359850118,
          -0.010165050282240736,
          -0.019447979197487357,
          -0.011425932135334164,
          -0.016638856669675482,
          -0.012511954193489902,
          0.004045283294618814,
          0.023458874942838655,
          0.028195477339118293,
          0.0012749769856624275,
          0.018915350874362722,
          -0.005933482865249275,
          -0.010715475419096331,
          -0.022114500338131657,
          -0.017738755489320458,
          0.01841125779160966,
          0.0014553933305564877,
          -0.0021964590863894134,
          -0.0004751002826591049,
          -0.014375285722915146,
          -0.004436119921010128,
          -0.006831425522744962,
          -0.012132334765602331,
          0.02201580837310495,
          -0.019091320179540558,
          -0.014430857969342566,
          -0.0009534833283980486,
          0.004103456400158692,
          0.023526387284991478,
          -0.04066861272508497,
          0.03290201075840025,
          -0.01080742388920386,
          -0.0033229578177765102,
          0.014160702929452219,
          0.012843823067689481,
          0.003997086397580619,
          -0.01533080003079149,
          0.03691046052469304,
          0.006126604351338109,
          -0.0003374057600442294,
          -0.006529424359693342,
          0.010673761893413293,
          -0.0006282563812742073,
          -0.014596321135427557,
          -0.01794870490917287,
          0.006313001893858215,
          0.0018148894315167966,
          0.01744043900660665,
          -0.016582530925715284,
          -0.011324818466421705,
          0.011890385020274435,
          0.0021314538923685854,
          0.010573524561530746,
          0.02595169919211671,
          -0.008007150996077168,
          -0.0011871579707387846,
          -0.007850747868009815,
          0.02141252640923917,
          -0.014581411549897961,
          -0.012454621149916068,
          0.010280644785652633,
          0.0016246328959229606,
          0.022242068565734734,
          -0.01609912737331198,
          -0.006492470219029661,
          0.012833151264191637,
          0.017541061278002645,
          -0.006920946196191941,
          -0.0035593330998790885,
          -0.01299298429955402,
          -0.004838340011805053,
          0.004629205452545685,
          -0.012878755196007723,
          -0.006596887450077785,
          -0.005182439312254762,
          0.028173140661858904,
          -0.007348481632684613,
          -0.005808841651725155,
          -0.007137568038779228,
          0.00003466662735045034,
          0.0016688784174142875,
          -0.0020637933042967666,
          -0.027238675666677467,
          0.004062560359473921,
          0.017650918225278353,
          -0.006062142042691551,
          -0.000055768863157819016,
          -0.0021928833178302383,
          0.0071571602857329105,
          0.01506138195141372,
          -0.005364730097370913,
          -0.013848844495131088,
          -0.00046715158611845825,
          -0.0034285365094068147,
          0.01489044655502997,
          -0.023917470523109167,
          0.0174531047001392,
          0.01999986576101088,
          0.008915103516961839,
          -0.0033376047199893573,
          -0.006357981909540486,
          -0.02473789088823112,
          -0.022969300589350868,
          0.009157316036812932,
          -0.014844446002050132,
          -0.007006073394916139,
          0.014216308815681096,
          0.004327428470246098,
          0.01812221124946371,
          0.01638424308836489,
          -0.004298494668412582,
          -0.007830240212782072,
          -0.015951709101798366,
          -0.01766976087353984,
          0.007755139144822333,
          0.0157162015166622,
          0.013873156516205869,
          -0.018781920933082057,
          0.005796971960060108,
          -0.02613730646918241,
          0.006622815215558131,
          0.0021835661794205215,
          -0.00425354571357131,
          -0.0037177234908825187,
          0.05641059599992044,
          0.003800910344224527,
          -0.012688013872399534,
          0.0343445020037616,
          0.017136809605999045,
          -0.02580799277577796,
          0.019845520355581635,
          -0.011603747805418233,
          0.008207354519950253,
          -0.017021203236105033,
          -0.004737710538645274,
          0.006099960635459885,
          -0.023366118054577483,
          0.021995021597681783,
          -0.007962390787607247,
          -0.014130801345123858,
          -0.007489558528736583,
          -0.007098762786619247,
          -0.020622905377504264,
          -0.003275164684961291,
          0.010886300629446144,
          0.012991544066495725,
          -0.0001819291090676304,
          0.02235615621125839,
          0.011133950916710605,
          -0.02995555862307525,
          -0.0032774664589361553,
          -0.012229163277236254,
          -0.022005046077410984,
          0.009118045062838434,
          -0.0044053291554412835,
          0.01900464670120475,
          0.010644907954615748,
          0.034067656703955,
          -0.0218126853715232,
          0.009720167547438647,
          0.006617080752146966,
          -0.028512983679922523,
          0.006223494452463955,
          -0.015560569963774537,
          -0.009854358987774618,
          0.010691371268478644,
          0.015400301569896059,
          -0.016852740385521474,
          -0.0008474695163538863,
          -0.005492329506930938,
          -6.15202609573488e-7,
          -0.013908611094815542,
          -0.02981797626683748,
          -0.0004941272182698212,
          0.018657679962946008,
          -0.009292166985995139,
          0.011962246585582958,
          0.007261109778317262,
          -0.03623837747829951,
          -0.03829522334663145,
          0.005922943767546583,
          0.0029558288312721763,
          -0.05811173205126614,
          -0.013994518968664554,
          0.020330584090218082,
          -0.012894483008774932,
          0.0185857252982127,
          0.01152035355969508,
          0.028152140371630448,
          0.008445417715169524,
          0.015287596860313888,
          -0.031275699588014516,
          0.003667693436427466,
          0.0013654258802871723,
          0.03071791447662735,
          -0.00697308754778429,
          0.021529165065055974,
          0.04643224958983627,
          0.006107945570018277,
          -0.0058139368627028575,
          0.003972220985227018,
          -0.024668868615058244,
          -0.004907417225240645,
          0.007561974500082048,
          0.01659352321378451,
          -0.011249764626463264,
          -0.00405056773335537,
          0.014932587311797722,
          0.015173549122961543,
          0.0005978403707916058,
          -0.01949896119661997,
          0.011821381862676712,
          -0.034432385830305036,
          -0.008282232471486429,
          0.01921857384255819,
          0.01716564601157046,
          0.006126499502021749,
          -0.01075666759820143,
          0.006783434201985755,
          -0.004790797817638808,
          -0.0085811233214432,
          -0.003505220135940682,
          0.01884405403892633,
          -0.022610923909135928,
          0.010805117994913219,
          0.008714948609022794,
          -0.007171538134146979,
          0.0389202718610808,
          0.01885597991765976,
          -0.0022308963354466553,
          -0.017058692684848595,
          0.04272152991743416,
          -0.00873395129655579,
          -0.003679408564244203,
          0.0028963611720960953,
          0.0029602334824422416,
          -0.01806657156053304,
          0.010810811209309039,
          -0.014343626758489714,
          -0.002032114833364935,
          -0.0098036129642872,
          0.015038304300621618,
          -0.01762472189721286,
          -0.010325011016238518,
          -0.0006160819595313825,
          0.008241998343849213,
          -0.02537902389871349,
          0.03891144514634595,
          0.01817429365645554,
          0.009286957819365196,
          -0.012720087416115035,
          -0.003681457446937614,
          -0.028753619462486443,
          0.005587048849736253,
          0.0025791235032222065,
          0.028727690686290122,
          0.008551780201721934,
          0.02272561885578174,
          -0.0071065293736255865,
          -0.0011392694775024241,
          0.024945369330443348,
          -0.0041795128995706496,
          -0.027082728408919145,
          -0.022459003304078913,
          0.004699466327451969,
          0.036726023526203654,
          0.0020422650323013184,
          -0.024517901980993687,
          -0.008308339057196351,
          -0.010101690081390655,
          0.0007712404221335066,
          -0.0019197255531710658,
          -0.020427612970609608,
          -0.0038890829180351586,
          0.004327788581797892,
          0.001768004696211336,
          0.014891120332945033,
          -0.003156586237270277,
          0.012280236476836452,
          -0.0225775582738678,
          -0.0035254245872415,
          -0.015952638494263875,
          -0.010604965274758155,
          -0.0033211006875417544,
          -0.004699367159834686,
          -0.0010263037376410915,
          0.03901182162970225,
          -0.00011511009926740132,
          0.013751676065157679,
          -0.007538043801232816,
          0.012570032856383114,
          -0.02399164676485611,
          0.016229778570302056,
          -0.025619583193905483,
          0.02931666719665701,
          0.008384449736487486,
          0.024155505656375142,
          0.018485649882901387,
          0.0026208620041280792,
          0.019174790336724232,
          -0.012604698021022277,
          -0.015774873232728748,
          0.01340355680733018,
          0.03204898648869035,
          0.0038571827747482866,
          0.011181313119887603,
          -0.033236101466175214,
          0.016713130547327062,
          0.0373541877562982,
          0.001718375981528653,
          0.0015948737414066207,
          0.02339774596801973,
          -0.014372119095029208,
          -0.0021104594542458175,
          0.01265475060509191,
          -0.006943291506963594,
          -0.005576462933930714,
          -0.014222039082360331,
          -0.003020651003207819,
          0.0036489094296644617,
          -0.0003065685486451987,
          -0.009777907988806846,
          -0.002158896705603694,
          0.001271373066412086,
          -0.006265611545420646,
          0.02205675067383054,
          -0.004705793465149602,
          0.008944906184487823,
          0.00991029162030408,
          0.007561226649174552,
          -0.006023432072737846,
          0.018175551658417766,
          0.0050134369681762835,
          0.03392487445770877,
          0.0025039677415758816,
          0.011946116023718324,
          0.01098071251344996,
          -0.0008876744461587804,
          -0.00020456363224557748,
          -0.02483194692842943,
          0.019532610525023482,
          0.018545184170295423,
          0.00278824762142152,
          -0.00639476803548293,
          -0.004938053665129323,
          -0.0014523295682243242,
          -0.00814287920375573,
          0.011534651212164003,
          -0.00004509519594834101,
          0.008922994077941476,
          -0.014037374855089255,
          -0.001648069516710961,
          0.0061589455361738,
          0.0293151723206918,
          -0.009419833387973328,
          -0.01394430752845731,
          0.009855594040697769,
          0.023513994919521126,
          -0.005908771370065713,
          -0.0055107704938047565,
          0.03126974582239686,
          0.0033543669274771442,
          -0.014948870851178594,
          -0.005922605283630105,
          -0.013913720413426207,
          0.02167326327786483,
          -0.019831509818777675,
          -0.007239435107693901,
          -0.010536210778542282,
          -0.004122325579987954,
          0.010429658093274164,
          -0.014537008779937313,
          -0.01331254211215406,
          0.006193682914968933,
          0.003893297175439683,
          -0.0027621856062530533,
          0.004506208147141787,
          -0.0029956766031950695,
          0.001924413944115657,
          0.023507352453583773,
          0.0078004974676227565,
          0.003380001090062891,
          -0.0015311445271372402,
          0.01665885385551915,
          -0.02377530562895959,
          -0.0006490596801466339,
          0.007223748577413521,
          0.006551596206945637,
          0.022725348056401484,
          -0.021344151327908168,
          0.001574649570628693,
          0.006618141689175657,
          0.02732014050074336,
          -0.039084910084765764,
          0.004325301330456156,
          0.008701593948984598,
          0.003864563870057214,
          -0.0077582449159970006,
          0.00887080330645166,
          0.025451028025550614,
          0.008059580441694018,
          -0.024945456600560058,
          0.009181963803041862,
          0.026815193139822755,
          0.013116169205264845,
          0.02143324809834022,
          -0.01810175212758177,
          -0.007018102827909979,
          0.03652088975101196,
          0.007883958786763248,
          0.0036713631396349555,
          0.015768977116709628,
          -0.014126082584387061,
          -0.023737943765034644,
          0.002033595016669728,
          -0.008665234194694586,
          -0.023444711765915456,
          -0.01623217975215229,
          0.013289281668593476,
          -0.018006908372120198,
          0.00969208810471229,
          0.017894866114092148,
          -0.015910598751705304,
          -0.007298914654756975,
          -0.015015108836357765,
          0.01748644062758869,
          -0.009171758398180511,
          0.015137150066293851,
          0.009593369193741676,
          -0.01193324351821536,
          0.0007250989193966429,
          0.014952483292308916,
          0.008767928923614315,
          0.016069680727707238,
          -0.005361746559810867,
          -0.003405969079989857,
          0.0022195262779536903,
          -0.0001232722343110965,
          -0.008141311888791957,
          -0.01729771330989034,
          0.01127371537397202,
          0.013287501746599203,
          0.005762077719595857,
          0.017336395326619684,
          -0.000027383221309889806,
          -0.010787278536252325,
          0.0011324567396155925,
          0.023519324988839914,
          0.010457127994684148,
          -0.017010903778234814,
          -0.006075342161236396,
          -0.0034857726123452473,
          -0.02244403851277763,
          0.015382482742196656,
          -0.006501356423925997,
          -0.00310888449495461,
          -0.00035096791751131236,
          0.019953075536765653,
          -0.001506221557155693,
          -0.024527625363226228,
          0.01811368115356596,
          -0.004903694609096741,
          -0.006721543997404984,
          0.005581849092357961,
          -0.001806337632092716,
          0.004348326588016745,
          -0.014159360324867183,
          0.03201243495218967,
          0.01106772945753363,
          -0.0006478292471923334,
          0.02435250881325133,
          0.004348213761137515,
          0.026138878108481617,
          0.01923728837405197,
          0.01084099901488195,
          0.001294449034332339,
          0.02386810094696204,
          0.011711409830834872,
          0.01843753485984647,
          0.038602745352588216,
          0.006597273228464277,
          0.01088299026875546,
          -0.014826824126131705,
          -0.029473574458436555,
          -0.0011137104808662628,
          0.022812071325796747,
          -0.011344384860847408,
          -0.039821285275056795,
          -0.012914688197390143,
          -0.006255140747536639,
          0.008556061262349863,
          0.03245835562074737,
          -0.03409096831096539,
          -0.010147915177347377,
          -0.007016013288226444,
          -0.006945510855265964,
          -0.009527279108891798,
          -0.005448011284201041,
          0.02268743895390406,
          -0.01624712801610442,
          0.007459503791241095,
          0.013504537255137257,
          0.023320011301176155,
          -0.0031086033159039212,
          0.03085222613047764,
          -0.004891026932681298,
          0.0051398863006820745,
          -0.0022492142422521357,
          -0.010228766386308735,
          -0.014552734892546814,
          0.020340428844568072,
          0.0038293091911465946,
          -0.018545851272740475,
          -0.026855903864267318,
          -0.00520137683179421,
          0.0053085455000683405,
          -0.01351288856602876,
          -0.026512409491575878,
          0.01628387155755005,
          0.026775731732994416,
          0.028009468629025345,
          0.0032634978958872556,
          0.017964706412893803,
          -0.0016715453721292694,
          -0.026139218282989027,
          0.037356419654250524,
          -0.009678471715223628,
          -0.02253444264871778,
          0.025400190797261427,
          -0.018025746540496823,
          0.021295214373620704,
          -0.0038114266737470717,
          0.01993785155732281,
          -0.023587229408026763,
          -0.004612558422362981,
          -0.01141465944575754,
          -0.01736449117902346,
          0.012798552887052098,
          0.00354554398538248,
          -0.021056451246001005,
          0.019605199833385156,
          0.0017433628681224216,
          -0.004664832160421352,
          0.041443867202870736,
          -0.010936872231333468,
          0.017596274091203547,
          -0.00962518732082605,
          -0.016070174148250887,
          -0.006748182890622278,
          -0.017085276999371138,
          0.0016955908107753209,
          0.0020631659463696524,
          -0.008296065076226935,
          0.023913589879477594,
          -0.015753716364493936,
          -0.018596466034547055,
          0.03233254736601305,
          0.005957086430093925,
          -0.019312813584274478,
          0.011828882484911419,
          0.02542008845030835,
          0.01658778527730062,
          -0.040698953121335604,
          0.0018128967253884345,
          -0.03953016024781441,
          -0.003550976802455054,
          0.0259105507033511,
          0.03779535829634034,
          -0.007647174618462616,
          0.0038159590129345587,
          0.013305099387408552,
          0.01262033437372971,
          -0.011113292711050686,
          0.03791656569267973,
          0.003754181788487764,
          -0.038934185156233085,
          0.013553705942361712,
          0.010220057662988558,
          0.019763785580918847,
          0.022455508221731972,
          -0.03966658035155437,
          0.027960881694980164,
          -0.014911464928834096,
          0.016366608673308115,
          -0.009906174820563449,
          0.02291940053831188,
          -0.011941067385345304,
          0.0000862454753283712,
          -0.019323999302084432,
          0.008701344459908285,
          0.022704275226292193,
          0.021780756498207134,
          -0.007007904696801134,
          -0.014763835990230968,
          -0.022698285408866425,
          0.0016980710230354965,
          -0.029325458887334063,
          0.00279374583864632,
          0.0051441528992014094,
          0.006447932407999297,
          0.012041311920687511,
          0.018084678047957325,
          0.013216587455959605,
          -0.024435314906943714,
          0.021759004347995686,
          -0.029512986692646976,
          0.014601502454022575,
          -0.005807159074630799,
          0.017459481803938456,
          -0.023521693401402224,
          0.017597745845458524,
          -0.01526947514083192,
          -0.008998875134229463,
          -0.023619209084565825,
          0.03043098622823841,
          -0.012761996687383688,
          -0.026291423368971126,
          -0.028411899444143345,
          0.006564837671838502,
          -0.004380414057433845,
          -0.0015882867854211296,
          0.028667373370791154,
          0.009618707308555427,
          0.008735559355802376,
          -0.0007078365821537717,
          0.045023459172796085,
          -0.017398662134996346,
          -0.03444795216862299,
          0.04938027612705045,
          -0.01354179748243992,
          0.003818310931648418,
          -0.0033632169957215955,
          0.022823620145303137,
          -0.01627509056966448,
          -0.0004640141075156783,
          0.007871295885870594,
          -0.03562478426824105,
          0.0017134193353590286,
          -0.006894076162121084,
          0.0006743868894391537,
          0.027157390281069053,
          -0.0012408864009928395,
          -0.011900876401089387,
          0.03494422638676791,
          0.022440459635693782,
          0.016310555149358922,
          0.0011681798109754002,
          -0.010247050378763787,
          0.021648471436671334,
          0.018433668584255894,
          0.014155662669319889,
          0.0010634941437352885,
          0.007085096937377494,
          -0.008706768155128428,
          0.014185384212548212,
          -0.005853817813275323,
          0.012218825985518222,
          -0.02131277403128325,
          -0.02240861382799648,
          0.0094033243946055,
          0.006985993923820321,
          0.009708510396326982,
          -0.0019410955109713966,
          -0.0034101223939168816,
          -0.015293697579891338,
          -0.012158426366288201,
          -0.015308951051003961,
          0.02632005423168022,
          0.008019974447980067,
          0.006379805570947988,
          -0.021225173109495236,
          0.030204196464357486,
          0.03542335499038992,
          0.027586552101215207,
          0.0020878316602881497,
          -0.0341645424373908,
          0.000980564672014333,
          0.011712997857226855,
          0.022354726696567268,
          0.023274657745137803,
          -0.02543591112407273,
          -0.01602609172313957,
          -0.0012477264431997588,
          0.014871124519086782,
          0.0005631644416672448,
          -0.010324753765792059,
          0.01752806723189514,
          -0.04447813492468555,
          -0.006474021176311552,
          0.0015694316662336083,
          0.0023385867814491854,
          0.01081064538771861,
          0.0025578069722515776,
          -0.012308462618420632,
          -0.025842585924142805,
          0.00014277730332796826,
          -0.002488753802463678,
          -0.004572988051770494,
          0.019054357235070485,
          -0.009194215590519151,
          0.0008517507574817279,
          0.036086441975721986,
          -0.012446685270327537,
          -0.018511329141151108,
          -0.012976255534323104,
          0.01715704413510816,
          -0.013681627263764581,
          -0.02012280445127831,
          0.02949286429852312,
          0.014908480774682605,
          0.0027502928870100684,
          -0.016033661319796864,
          -0.009619152597791116,
          -0.013948108979804339,
          0.01112885158248738,
          -0.02108702693578173,
          -0.009777152727928978,
          0.0071236813931929354,
          -0.0020896623690753297,
          -0.010081270273512797,
          -0.002086002485759038,
          0.01566348916391475,
          0.008567442109860258,
          -0.00007277360079234276,
          0.008341168822296506,
          0.009800893781101395,
          0.013689440320948711,
          -0.03285897235071887,
          0.024198672185421558,
          -0.007022639939916582,
          0.03665575347315152,
          -0.00076409817500971,
          -0.0032273862213232384,
          0.00034451690398574065,
          0.0040316588915796986,
          -0.006054743448422867,
          -0.016433796559765807,
          -0.019203438452189078,
          -0.003107878324429361,
          -0.012116932834078033,
          0.0002279322240868608,
          -0.0031791536120538083,
          -0.006078640650313115,
          0.006506501954678702,
          0.027008009855510086,
          0.03529561012421233,
          0.006664059004488592,
          -0.044788332772376815,
          0.0057915905325584115,
          -0.007202178412983999,
          0.01110173661639782,
          0.010351125501905388,
          0.018610168057200893,
          0.0014811767308669675,
          -0.003300153850839872,
          0.016579376501577724,
          0.018548686384443486,
          0.007532494967545835,
          -0.011309260699486252,
          0.010249028650254356,
          0.01760835140297487,
          0.01553854096932127,
          -0.016395228153509307,
          0.0076891290497356525,
          -0.011358049804632203,
          0.007805189720592287,
          -0.01665638896780829,
          0.018154440075826714,
          -0.0033116063057442922,
          0.003355385586214857,
          -0.01820852176010878,
          0.010549615337814965,
          0.012307126115258851,
          0.022370520890507537,
          -0.013374563386078763,
          -0.014606365447273825,
          -0.0017659322797171704,
          0.023139642379601952,
          0.0069930829116485885,
          0.03384908818952848,
          -0.021046112571198955,
          -0.012987442240803714,
          -0.005309998392128131,
          0.010113230461293445,
          -0.03664124927414888,
          0.007861947066583587,
          -0.010824593049677422,
          -0.05146700764791734,
          -0.012462796834110468,
          0.0019094037110569289,
          0.016588746196264506,
          -0.011018068433915201,
          0.007395277491881388,
          -0.011626595489093663,
          -0.019124113190118714,
          0.0026575964350231567,
          0.010205512247562899,
          -0.029886320066089555,
          -0.009052215120897522,
          -0.020795133591217964,
          0.00026434258989388795,
          0.03694182218727512,
          -0.005277524054100702,
          -0.009837392092666621,
          -0.0204374996855545,
          0.0013028258085001655,
          -0.00041516583608138777,
          -0.012504221135656255,
          -0.0035093445509272216,
          0.028620183155224577,
          -0.002400374208196071,
          -0.014904657172334305,
          0.0028817075456986883,
          0.015212892202342537,
          0.0021583295680646175,
          -0.006192622221895823,
          -0.025936347443788317,
          0.03231135135603119,
          -0.00475444396521398,
          -0.01282013340737036,
          0.015201067286757687,
          0.0208765652203365,
          -0.007110932291717833,
          0.0022693363167348053,
          0.010720209267727179,
          -0.037923037861288096,
          -0.00014922986344315136,
          -0.014988235112956142,
          0.008744298191827439,
          -0.011841630046318387,
          0.02840557727968792,
          -0.03883049730872421,
          -0.028932605413944976,
          0.004250899540504607,
          0.03706024203359224,
          0.002543970646506784,
          -0.003211785511264264,
          -0.007053431264953852,
          -0.017901370227696833,
          0.006446127826069238,
          -0.03348304749378494,
          0.0006409905252750452,
          -0.003945821857551475,
          0.02607655459384357,
          0.028942350338461355,
          0.03905463467684707,
          -1.564728067486683e-6,
          -0.02890010216056284,
          -0.03723750177279891,
          -0.02087781273199106,
          0.018613767370339356,
          0.027677706830503905,
          0.0056313372368049916,
          -0.027313788526683945,
          0.007459166338269967,
          -0.0011954465133742999,
          0.0023893487640561746,
          -0.010037512653758969,
          -0.005543382650813423,
          -0.003552417866763792,
          0.0008511531577430655,
          0.009288571537237163,
          -0.003277824869379339,
          -0.004514098302149967,
          0.0037333341946048436,
          0.006142872376156547,
          -0.014465852634469192,
          0.01571535688193851,
          -0.00784308099585995,
          0.004758030699673353,
          -0.03390880278877656,
          0.0015527134643488262,
          0.0068343400767086745,
          0.009954389770347153,
          -0.011948162414798994,
          -0.007550158235620151,
          -0.006109209466027786,
          0.01725257154449002,
          0.004440737445183646,
          0.027533122539239795,
          -0.019004769327500975,
          -0.008772756756994338,
          -0.029651545502348182,
          0.006814708812407348,
          0.00293653863059985,
          -0.001976653288129999,
          0.006526008920263406,
          -0.0011138116678629394,
          0.004995092090050614,
          0.010147638336183207,
          0.00906834820719249,
          0.007440857539919889,
          0.008562877901941053,
          -0.0003044416129750492,
          0.009388068296992347,
          0.006763619275902087,
          -0.009995682817930495,
          -0.026035938478948754,
          -0.015016136061882018,
          -0.019437636407854175,
          -0.002332379309091338,
          0.0278644237389385,
          -0.00629584791773646,
          -0.011717347172647068,
          -0.01583492690915668,
          -0.0166838485214218,
          0.005160680162369818,
          -0.013544458678966897,
          0.029136008435956175,
          0.030729419113849785,
          -0.024720980633467192,
          -0.003175274168413608,
          -0.0061912148760222205,
          -0.01392494655055463,
          0.006091164706759283,
          -0.009884624826235441,
          0.0028767880922719756,
          0.00876739583013072,
          -0.03149234762016851,
          -0.017316171733847013,
          -0.01109706535715842,
          0.03795192684277888,
          -0.008568948098957418,
          0.013825417558965533,
          0.0033774508149491908,
          -0.011108776177933911,
          0.001108738969150515,
          0.027302006761724194,
          -0.008384010257341788,
          -0.02453902149946365,
          0.03262537794763879,
          -0.02888422782142245,
          -0.02725822609468519,
          -0.008735888863008218,
          0.01309329970058877,
          -0.02952243701931577,
          -0.013480578581166905,
          -0.016441365961168346,
          -0.0032985738345906877,
          0.03309537114197815,
          0.004785626430070864,
          0.01174476725905553,
          0.0027378569678587553,
          0.015089177903832776,
          0.04303537805665363,
          -0.00197441531754876,
          0.002365516734635344,
          -0.042777759698740446,
          -0.01471752522025834,
          -0.003084616887027694,
          0.012986720865107569,
          0.0065633120054049005,
          0.015878393279950703,
          -0.01734706288632985,
          0.01074130255943424,
          -0.0008959120675212982,
          0.0002091590243425556,
          0.012492065760061115,
          0.01253508436088426,
          0.04261635626073537,
          -0.009384371788781955,
          0.017168730700343797,
          -0.004503008177314513,
          -0.02656765077133161,
          -0.0006629603307573647,
          -0.00584745464664138,
          -0.029406149135295642,
          -0.01031542514400956,
          0.0013533304758090647,
          -0.013865819960224906,
          -0.034324463226223983,
          0.0029169420464629854,
          -0.018377492476570355,
          -0.007474706945951746,
          -0.0006495180030791702,
          0.025513255741458518,
          -0.00029158107649938545,
          0.007839956388051739,
          0.020288644233981717,
          0.021437582562115986,
          -0.004864739028323279,
          0.0003380614510311562,
          -0.028921742475253996,
          0.0015230555659777113,
          -0.013138703548349862,
          0.007580623147450282,
          0.009780867189523892,
          0.006211753029511972,
          0.0022912803552451533,
          0.02036019615574641,
          0.002435290855396468,
          0.02195626494805158,
          0.009645803465746138,
          0.0020296339521587935,
          0.005086470417459108,
          0.010984757120066958,
          -0.018734384672541595,
          -0.039716327355446585,
          0.011497267879257886,
          0.014047924539093282,
          -0.025578968122833768,
          0.01855614655235976,
          -0.009060708680583587,
          -0.018693765726725795,
          -0.022274131777503422,
          0.0005642191771642604,
          0.007888324065058664,
          -0.021062195534433507,
          0.017194445657191502,
          0.009987876024213867,
          -0.03244796485912012,
          0.001752342477515054,
          -0.028972589165061274,
          -0.02249517629879021,
          -0.021553499358581772,
          -0.008705399388681046,
          -0.014737175300200231,
          -0.008581768040419305,
          0.010813566714851527,
          0.012054104120076974,
          -0.002746622938126685,
          0.02830844257379175,
          0.0033315511743186805,
          -0.0034752724386105534,
          0.01219182574450952,
          -0.01479368698193446,
          0.0072379175457798475,
          0.038094536486512634,
          0.004765904138160033,
          -0.019312707749429746,
          -0.005130765131904976,
          -0.004582677106552403,
          0.00041474987037593654,
          0.002468906769088606,
          0.00041381372160068374,
          0.02205485035740639,
          -0.023596443182144034,
          0.00459454700178419,
          -0.01757357912730805,
          0.04228397952824452,
          -0.007472791740071991,
          -0.004463001134010326,
          -0.0004894205636551463,
          0.007871433041491382,
          0.027471615504509928,
          -0.012287582671045606,
          0.011689917896784238,
          -0.032796991091974176,
          -0.0007270515686576915,
          0.023400245341272625,
          0.01756171285824579,
          -0.00312225255328448,
          0.011962494029093445,
          -0.017977202375319766,
          0.0038488391632684484,
          0.0022482586009810943,
          -0.011854116437362335,
          -0.0070005878267359175,
          0.010517274986357178,
          0.016752522412689323,
          0.024710760877215385,
          0.018500939729440502,
          0.011737526542426024,
          -0.030106844866952014,
          -0.003077367299028819,
          -0.00012014280132707669,
          -0.002757728657403371,
          -0.0020545183943480906,
          -0.008499526292007608,
          -0.006857275284205291,
          -0.004648576719026874,
          -0.011093185275417642,
          -0.03152008350929643,
          -0.001125354106159182,
          -0.0017905202857462338,
          0.0033162660954508543,
          -0.00759846551177178,
          0.012131411825959358,
          0.015828558854997545,
          0.028361008362785926,
          0.010134369200447699,
          -0.004652641988970687,
          -0.020992126345986132,
          0.006305878945917143,
          -0.007183321388253899,
          -0.02332419274642319,
          0.005414342659597521,
          -0.002365607678794877,
          -0.0041603498113706085,
          0.018115377914326207,
          -0.027970330914080556,
          0.03047580781027241,
          0.032779979779566246,
          -0.0030406469415649533,
          0.006690128011956389,
          0.02020239637902398,
          0.007399167001734022,
          -0.015847364756422472,
          0.007361243300720188,
          0.00290959107672832,
          -0.013955961759342432,
          0.03127493746931019,
          -0.0025092983316308396,
          -0.023832777889828807,
          -0.03773399249694927,
          -0.005290430555010179,
          -0.009512207399320972,
          -0.013432561761111829,
          0.012243764178810094,
          0.00938248526676698,
          0.015092009665189194,
          0.018653668210220364,
          -0.02723442762435737,
          -0.023969382367240544,
          -0.017696256504445413,
          0.008123157034609502,
          -0.020614064316827142,
          0.03567274935662046,
          -0.0026777554520952956,
          0.03305044790849217,
          0.0020568059111698792,
          0.02492919142890866,
          0.03192148466970901,
          -0.0029949571531762264,
          0.0244386765054431,
          -0.025604862880058164,
          0.030383213489672472,
          0.015308603140816012,
          0.010326385823210004,
          -0.03145256934680877,
          0.0039019794037385446,
          -0.009978911083229007,
          -0.004042969054390253,
          0.008953689533474161,
          -0.013354859125405657,
          0.024834520819733842,
          0.0011066901323510763,
          0.024039198095066494,
          -0.0248707188773513,
          0.014243575933373975,
          -0.005809941489175024,
          0.009226905487481254,
          0.011148655732895986,
          0.011411742988107085,
          0.012108566183777309,
          0.01591152392313474,
          0.0025672853687259923,
          -0.028670529848104784,
          0.030124157110277452,
          -0.012770769555516879,
          0.017693081400011197,
          0.007410701807143929,
          0.025586876678837578,
          -0.008353130154723089,
          0.0013149200332307578,
          0.014683113427417568,
          -0.04098960914731592,
          -0.018460895447322413,
          0.03074267422315646,
          -0.010931262898932185,
          0.04385645891558921,
          0.012472933773285014,
          0.01133118334980073,
          0.0005487874781381558,
          0.005246977645451898,
          -0.01075205522739686,
          0.004823473099009552,
          -0.02235037864904598,
          -0.0385607721175994,
          0.022235827141195475,
          0.004813025340469433,
          0.006468597822267431,
          0.004914666567179626,
          0.0006566956464809241,
          -0.004672733495380388,
          0.016606066998067617,
          -0.004839894439677307,
          0.017593829247837277,
          0.0036527701012357143,
          0.04431174652254785,
          -0.0183705249907185,
          0.0035095003157984347,
          -0.024388813842855135,
          -0.003432703469816482,
          -0.0054915397211168235,
          -0.0020512737736611128,
          0.00878281184689439,
          0.020540462999103243,
          -0.0178304412186532,
          0.010210208523078898,
          -0.01846065296451745,
          0.010819855500580736,
          0.05287371259826498,
          0.014689821544685412,
          -0.002644370439626146,
          0.0018133432684748648,
          -0.0011958244860710999,
          -0.013969513128068177,
          -0.0018128695059834643,
          -0.014087815963131179,
          0.011860017536456801,
          0.01738650479084942,
          -0.009028365716621124,
          -0.03195370389427743,
          -0.026650459405934215,
          -0.002314404541782111,
          -0.015717803766807606,
          0.0002644339368784088,
          0.005419495599742021,
